SVM-light Version V6.02
0 # kernel type
3 # kernel parameter -d 
1 # kernel parameter -g 
1 # kernel parameter -s 
1 # kernel parameter -r 
empty# kernel parameter -u 
57 # highest feature index 
526 # number of training documents 
464 # number of support vectors plus 1 
0.84710482 # threshold b, each following line is a SV (starting with alpha*y)
-0.042791749619199168086502993446629 1:3.8942621 2:-0.17667121 3:1.3551394 4:-0.098842546 5:-0.44537586 6:-0.34561899 7:-0.26157999 8:-0.31560028 9:-0.30961666 10:-0.41393355 11:-0.22640149 12:-0.60592264 13:-0.21933696 14:-0.16083114 15:-0.15391792 16:-0.30765641 17:-0.37343216 18:-0.36310151 19:0.74356353 20:-0.14419276 21:-0.57808203 22:-0.062323686 23:-0.26375422 24:-0.25234732 25:-0.40743604 26:-0.4047187 27:0.035630431 28:-0.30796358 29:-0.16733444 30:-0.27352092 31:-0.20108834 32:-0.16073692 33:-0.18338262 34:-0.16487801 35:-0.27398148 36:-0.30811864 37:-0.39074841 38:-0.11907394 39:-0.21418162 40:-0.20511942 41:-0.13776088 42:-0.16252463 43:-0.2478133 44:-0.17397934 45:-0.31722111 46:-0.15619448 47:-0.066107452 48:-0.14383133 49:-0.22159693 50:-0.64531434 51:-0.26362848 52:-0.046759423 53:-0.34909117 54:-0.28615856 55:-0.073456042 56:-0.23132877 57:-0.46068627 #
-0.042791749619199168086502993446629 1:-0.32373646 2:-0.092463642 3:-0.23239584 4:-0.098842546 5:-0.25986975 6:-0.027397156 7:-0.26157999 8:-0.31560028 9:-0.30961666 10:-0.41393355 11:-0.22640149 12:0.72748935 13:-0.0080343205 14:0.83862919 15:-0.15391792 16:-0.30765641 17:1.1856954 18:-0.36310151 19:-0.80271834 20:-0.14419276 21:-0.57808203 22:-0.062323686 23:0.04611912 24:-0.25234732 25:1.0934618 26:-0.4047187 27:-0.27057403 28:-0.30796358 29:-0.16733444 30:-0.27352092 31:-0.20108834 32:-0.16073692 33:-0.18338262 34:-0.16487801 35:-0.27398148 36:-0.16411093 37:0.11865877 38:-0.11907394 39:-0.21418162 40:-0.20511942 41:-0.13776088 42:-0.16252463 43:-0.2478133 44:-0.17397934 45:-0.31722111 46:-0.15619448 47:-0.066107452 48:-0.14383133 49:0.49167171 50:0.15901329 51:-0.26362848 52:-0.52965069 53:-0.34909117 54:-0.28615856 55:-0.072019421 56:-0.09706483 57:1.916122 #
0.042791749619199168086502993446629 1:1.8939741 2:0.43684098 3:-0.50017285 4:-0.098842546 5:-0.44537586 6:-0.34561899 7:0.84209174 8:-0.31560028 9:-0.30961666 10:0.77597016 11:-0.22640149 12:-0.60592264 13:-0.21933696 14:-0.16083114 15:3.0369647 16:2.4715889 17:-0.37343216 18:3.5474048 19:-0.30589855 20:-0.14419276 21:0.13495249 22:-0.062323686 23:-0.26375422 24:-0.25234732 25:-0.40743604 26:-0.4047187 27:-0.27057403 28:-0.30796358 29:-0.16733444 30:-0.27352092 31:-0.20108834 32:-0.16073692 33:-0.18338262 34:-0.16487801 35:-0.27398148 36:-0.30811864 37:-0.39074841 38:-0.11907394 39:-0.21418162 40:-0.20511942 41:-0.13776088 42:-0.16252463 43:-0.2478133 44:-0.17397934 45:-0.31722111 46:-0.15619448 47:-0.066107452 48:-0.14383133 49:-0.22159693 50:-0.031844124 51:-0.26362848 52:-0.33474877 53:-0.34909117 54:-0.28615856 55:-0.062604032 56:-0.1776232 57:-0.36513618 #
-0.042791749619199168086502993446629 1:-0.32373646 2:-0.17667121 3:-0.50017285 4:-0.098842546 5:7.8361464 6:-0.34561899 7:-0.26157999 8:-0.31560028 9:-0.30961666 10:-0.41393355 11:-0.22640149 12:-0.60592264 13:-0.21933696 14:-0.16083114 15:-0.15391792 16:-0.30765641 17:-0.37343216 18:-0.36310151 19:-0.88086981 20:-0.14419276 21:-0.57808203 22:-0.062323686 23:-0.26375422 24:-0.25234732 25:-0.40743604 26:-0.4047187 27:-0.27057403 28:-0.30796358 29:-0.16733444 30:-0.27352092 31:-0.20108834 32:-0.16073692 33:-0.18338262 34:-0.16487801 35:-0.27398148 36:-0.30811864 37:-0.39074841 38:-0.11907394 39:-0.21418162 40:-0.20511942 41:-0.13776088 42:-0.16252463 43:-0.2478133 44:-0.17397934 45:-0.31722111 46:-0.15619448 47:-0.066107452 48:-0.14383133 49:-0.22159693 50:-0.64531434 51:-0.26362848 52:-0.52965069 53:-0.34909117 54:-0.28615856 55:-0.07754489 56:-0.27608341 57:-0.60699731 #
0.042791749619199168086502993446629 1:1.5460979 2:-0.17667121 3:0.32228515 4:-0.098842546 5:0.12439287 6:-0.34561899 7:1.5995135 8:-0.31560028 9:-0.30961666 10:-0.41393355 11:-0.22640149 12:-0.17803672 13:-0.21933696 14:-0.16083114 15:-0.15391792 16:-0.30765641 17:1.7549007 18:0.44922587 19:-0.16076016 20:-0.14419276 21:2.7171066 22:-0.062323686 23:-0.26375422 24:6.4284077 25:-0.40743604 26:-0.4047187 27:-0.27057403 28:-0.30796358 29:-0.16733444 30:-0.27352092 31:-0.20108834 32:-0.16073692 33:-0.18338262 34:-0.16487801 35:-0.27398148 36:-0.30811864 37:-0.39074841 38:-0.11907394 39:-0.21418162 40:-0.20511942 41:-0.13776088 42:-0.16252463 43:-0.2478133 44:-0.17397934 45:-0.31722111 46:-0.15619448 47:-0.066107452 48:-0.14383133 49:0.96718419 50:-0.64531434 51:-0.26362848 52:2.1320693 53:-0.34909117 54:-0.28615856 55:-0.035750266 56:0.090904683 57:-0.20688137 #
0.042791749619199168086502993446629 1:-0.32373646 2:-0.17667121 3:2.005455 4:-0.098842546 5:0.41590247 6:-0.34561899 7:-0.26157999 8:-0.31560028 9:-0.30961666 10:-0.41393355 11:-0.22640149 12:0.040881664 13:-0.21933696 14:-0.16083114 15:-0.15391792 16:-0.30765641 17:-0.37343216 18:-0.36310151 19:2.0553911 20:9.5518112 21:2.606344 22:-0.062323686 23:-0.26375422 24:6.5319853 25:-0.40743604 26:-0.4047187 27:-0.27057403 28:-0.30796358 29:-0.16733444 30:-0.27352092 31:-0.20108834 32:-0.16073692 33:-0.18338262 34:-0.16487801 35:-0.27398148 36:-0.30811864 37:-0.39074841 38:-0.11907394 39:-0.21418162 40:1.2946737 41:-0.13776088 42:-0.16252463 43:-0.2478133 44:-0.17397934 45:-0.31722111 46:-0.15619448 47:-0.066107452 48:-0.14383133 49:-0.22159693 50:-0.64531434 51:-0.26362848 52:1.8440799 53:0.048005033 54:-0.28615856 55:-0.051619403 56:0.055100966 57:-0.14417663 #
0.042791749619199168086502993446629 1:1.1547372 2:0.32857412 3:-0.021999607 4:-0.098842546 5:-0.3393724 6:1.5637121 7:-0.088455014 8:0.82674593 9:0.067261241 10:3.389092 11:1.3032413 12:-0.098430037 13:2.6181555 14:-0.16083114 15:0.90970963 16:-0.20024595 17:-0.37343216 18:-0.36310151 19:0.79380375 20:-0.14419276 21:0.072648503 22:-0.062323686 23:1.2413449 24:1.5084718 25:-0.40743604 26:-0.4047187 27:-0.27057403 28:-0.30796358 29:-0.16733444 30:-0.27352092 31:-0.20108834 32:-0.16073692 33:-0.18338262 34:-0.16487801 35:-0.27398148 36:-0.30811864 37:-0.39074841 38:-0.11907394 39:-0.21418162 40:-0.20511942 41:-0.13776088 42:-0.16252463 43:-0.2478133 44:-0.17397934 45:-0.17748755 46:-0.15619448 47:-0.066107452 48:-0.14383133 49:-0.22159693 50:-0.35902825 51:-0.26362848 52:0.30522758 53:0.95315081 54:1.3869853 55:-0.048503041 56:0.22516862 57:0.96659309 #
-0.042791749619199168086502993446629 1:-0.32373646 2:0.55713749 3:-0.50017285 4:-0.098842546 5:1.1711773 6:-0.34561899 7:-0.26157999 8:-0.31560028 9:-0.30961666 10:8.1720381 11:-0.22640149 12:-0.60592264 13:-0.21933696 14:-0.16083114 15:3.6626279 16:-0.30765641 17:-0.37343216 18:-0.36310151 19:0.14626332 20:-0.14419276 21:0.69568837 22:-0.062323686 23:-0.26375422 24:-0.25234732 25:-0.10527511 26:0.22529314 27:-0.27057403 28:-0.30796358 29:-0.16733444 30:4.922328 31:-0.20108834 32:-0.16073692 33:-0.18338262 34:-0.16487801 35:-0.27398148 36:-0.30811864 37:1.0889581 38:-0.11907394 39:-0.21418162 40:-0.20511942 41:-0.13776088 42:-0.16252463 43:-0.2478133 44:-0.17397934 45:-0.31722111 46:-0.15619448 47:-0.066107452 48:-0.14383133 49:-0.22159693 50:-0.64531434 51:-0.26362848 52:-0.52965069 53:-0.34909117 54:-0.28615856 55:-0.089126267 56:-0.25818154 57:-0.45172846 #
-0.042791749619199168086502993446629 1:1.4591289 2:-0.17667121 3:0.28403127 4:-0.098842546 5:1.2109287 6:-0.34561899 7:0.62568551 8:-0.31560028 9:-0.30961666 10:0.052695356 11:-0.22640149 12:0.42896426 13:0.38438484 14:-0.16083114 15:-0.15391792 16:0.24282214 17:0.64123815 18:-0.36310151 19:1.3296993 20:-0.14419276 21:1.0072083 22:-0.062323686 23:0.62159818 24:5.133688 25:-0.40743604 26:-0.4047187 27:-0.27057403 28:-0.30796358 29:-0.16733444 30:-0.27352092 31:-0.20108834 32:-0.16073692 33:-0.18338262 34:-0.16487801 35:-0.27398148 36:-0.30811864 37:-0.39074841 38:-0.11907394 39:-0.21418162 40:-0.20511942 41:-0.13776088 42:0.06047773 43:-0.2478133 44:-0.17397934 45:0.3650074 46:-0.15619448 47:-0.066107452 48:-0.14383133 49:-0.22159693 50:-0.33176291 51:-0.26362848 52:1.989529 53:0.2523928 54:-0.28615856 55:-0.010090005 56:1.5857098 57:0.81132418 #
0.042791749619199168086502993446629 1:-0.32373646 2:-0.17667121 3:-0.50017285 4:-0.098842546 5:-0.44537586 6:-0.34561899 7:-0.26157999 8:-0.31560028 9:-0.30961666 10:-0.41393355 11:-0.22640149 12:-0.60592264 13:-0.21933696 14:-0.16083114 15:-0.15391792 16:-0.30765641 17:-0.37343216 18:-0.36310151 19:-0.66316223 20:-0.14419276 21:-0.30809808 22:-0.062323686 23:-0.26375422 24:-0.25234732 25:1.3659019 26:-0.0019242398 27:-0.27057403 28:-0.30796358 29:-0.16733444 30:0.55357343 31:-0.20108834 32:-0.16073692 33:-0.18338262 34:-0.16487801 35:-0.27398148 36:-0.30811864 37:-0.39074841 38:-0.11907394 39:-0.21418162 40:-0.20511942 41:-0.13776088 42:-0.16252463 43:-0.2478133 44:0.67862749 45:0.0033441042 46:-0.15619448 47:-0.066107452 48:-0.14383133 49:-0.22159693 50:-0.64531434 51:-0.26362848 52:-0.52965069 53:-0.34909117 54:-0.28615856 55:-0.066493958 56:-0.14181948 57:-0.24868453 #
-0.042791749619199168086502993446629 1:-0.32373646 2:-0.17667121 3:-0.50017285 4:-0.098842546 5:-0.44537586 6:-0.34561899 7:-0.26157999 8:-0.31560028 9:-0.30961666 10:-0.41393355 11:-0.22640149 12:-0.60592264 13:5.4556479 14:-0.16083114 15:-0.15391792 16:-0.30765641 17:-0.37343216 18:3.1884694 19:-0.88086981 20:-0.14419276 21:-0.57808203 22:-0.062323686 23:-0.26375422 24:-0.25234732 25:-0.40743604 26:-0.4047187 27:-0.27057403 28:-0.30796358 29:-0.16733444 30:-0.27352092 31:-0.20108834 32:-0.16073692 33:-0.18338262 34:-0.16487801 35:-0.27398148 36:-0.30811864 37:-0.39074841 38:-0.11907394 39:-0.21418162 40:-0.20511942 41:-0.13776088 42:-0.16252463 43:-0.2478133 44:3.936023 45:-0.31722111 46:-0.15619448 47:-0.066107452 48:-0.14383133 49:-0.22159693 50:-0.64531434 51:-0.26362848 52:-0.52965069 53:-0.34909117 54:-0.28615856 55:-0.087866455 56:-0.28503433 57:-0.56818008 #
-0.042791749619199168086502993446629 1:-0.32373646 2:-0.17667121 3:-0.50017285 4:-0.098842546 5:0.70741206 6:-0.34561899 7:1.6211542 8:-0.31560028 9:-0.30961666 10:-0.41393355 11:-0.22640149 12:-0.60592264 13:-0.21933696 14:-0.16083114 15:-0.15391792 16:3.2234621 17:-0.37343216 18:1.2804446 19:0.58726066 20:-0.14419276 21:-0.57808203 22:-0.062323686 23:-0.26375422 24:-0.25234732 25:-0.40743604 26:-0.4047187 27:-0.27057403 28:-0.30796358 29:-0.16733444 30:-0.27352092 31:-0.20108834 32:-0.16073692 33:-0.18338262 34:-0.16487801 35:-0.27398148 36:-0.30811864 37:-0.39074841 38:-0.11907394 39:-0.21418162 40:-0.20511942 41:-0.13776088 42:-0.16252463 43:-0.2478133 44:-0.17397934 45:-0.31722111 46:-0.15619448 47:-0.066107452 48:-0.14383133 49:-0.22159693 50:-0.64531434 51:-0.26362848 52:1.7917181 53:0.57941324 54:-0.28615856 55:0.28611916 56:0.88753736 57:-0.030710904 #
0.042791749619199168086502993446629 1:0.76337653 2:0.12407006 3:-0.50017285 4:-0.098842546 5:0.54840684 6:-0.34561899 7:-0.26157999 8:-0.31560028 9:0.86812675 10:1.3359249 11:-0.22640149 12:0.89665353 13:-0.21933696 14:8.8343115 15:-0.15391792 16:-0.30765641 17:0.86397064 18:-0.36310151 19:0.95568883 20:-0.14419276 21:0.12110716 22:-0.062323686 23:-0.26375422 24:-0.25234732 25:-0.40743604 26:-0.4047187 27:-0.27057403 28:-0.30796358 29:-0.16733444 30:-0.27352092 31:-0.20108834 32:-0.16073692 33:0.20196116 34:-0.16487801 35:-0.27398148 36:-0.30811864 37:-0.39074841 38:-0.11907394 39:-0.21418162 40:-0.20511942 41:-0.13776088 42:-0.16252463 43:-0.2478133 44:-0.17397934 45:-0.31722111 46:-0.15619448 47:-0.066107452 48:-0.14383133 49:-0.22159693 50:-0.272688 51:-0.26362848 52:-0.41038236 53:0.37502545 54:2.3400419 55:-0.05144259 56:-0.043359254 57:-0.0098093236 #
-0.042791749619199168086502993446629 1:-0.32373646 2:0.11204042 3:-0.50017285 4:-0.098842546 5:-0.12736541 6:-0.34561899 7:-0.26157999 8:0.78105205 9:-0.30961666 10:0.72930723 11:-0.22640149 12:-0.60592264 13:-0.21933696 14:10.404892 15:-0.15391792 16:-0.30765641 17:-0.37343216 18:-0.36310151 19:-0.32822752 20:-0.14419276 21:-0.57808203 22:-0.062323686 23:-0.26375422 24:-0.25234732 25:-0.1647166 26:-0.4047187 27:-0.19481209 28:-0.30796358 29:-0.16733444 30:-0.27352092 31:0.34969041 32:-0.16073692 33:-0.18338262 34:-0.16487801 35:0.20633267 36:-0.30811864 37:1.4043055 38:-0.11907394 39:-0.21418162 40:-0.20511942 41:-0.13776088 42:-0.16252463 43:-0.2478133 44:-0.17397934 45:-0.31722111 46:-0.15619448 47:-0.066107452 48:-0.14383133 49:-0.22159693 50:-0.64531434 51:-0.26362848 52:-0.52965069 53:0.58525288 54:-0.28615856 55:0.084019728 56:1.7736794 57:2.6715648 #
0.042791749619199168086502993446629 1:0.024139695 2:0.01580321 3:0.11188891 4:-0.098842546 5:1.3831843 6:0.38174522 7:-0.088455014 8:-0.31560028 9:0.82101703 10:-0.22728199 11:-0.22640149 12:0.68768597 13:-0.21933696 14:0.41028905 15:-0.15391792 16:0.3368063 17:-0.17544772 18:-0.21197082 19:1.072916 20:-0.14419276 21:-0.072727464 22:-0.062323686 23:0.090386741 24:0.57627344 25:-0.40743604 26:-0.4047187 27:-0.27057403 28:-0.30796358 29:-0.16733444 30:-0.27352092 31:-0.20108834 32:-0.16073692 33:-0.18338262 34:-0.16487801 35:-0.11387676 36:-0.30811864 37:-0.39074841 38:-0.11907394 39:-0.21418162 40:-0.20511942 41:-0.13776088 42:-0.16252463 43:-0.2478133 44:-0.17397934 45:-0.31722111 46:-0.15619448 47:-0.066107452 48:-0.14383133 49:-0.22159693 50:-0.25905532 51:0.87713802 52:0.60485291 53:0.21735489 54:-0.032010138 55:0.0018892051 56:0.73537159 57:4.0241957 #
-0.0075552359267337101597639126282502 1:-0.32373646 2:-0.17667121 3:-0.50017285 4:-0.098842546 5:-0.44537586 6:-0.34561899 7:-0.26157999 8:-0.31560028 9:-0.30961666 10:-0.41393355 11:-0.22640149 12:-0.60592264 13:-0.21933696 14:-0.16083114 15:-0.15391792 16:-0.30765641 17:1.4084278 18:-0.36310151 19:-0.88086981 20:-0.14419276 21:-0.57808203 22:-0.062323686 23:-0.26375422 24:-0.25234732 25:-0.050787069 26:-0.4047187 27:-0.27057403 28:-0.30796358 29:-0.16733444 30:-0.27352092 31:-0.20108834 32:-0.16073692 33:-0.18338262 34:-0.16487801 35:-0.27398148 36:-0.30811864 37:-0.39074841 38:11.624594 39:-0.21418162 40:-0.20511942 41:-0.13776088 42:-0.16252463 43:-0.2478133 44:-0.17397934 45:-0.31722111 46:-0.15619448 47:-0.066107452 48:-0.14383133 49:-0.22159693 50:-0.64531434 51:-0.26362848 52:-0.52965069 53:-0.34909117 54:8.0795603 55:-0.070184968 56:-0.25818154 57:-0.28152987 #
-0.042791749619199168086502993446629 1:-0.32373646 2:-0.17667121 3:-0.50017285 4:-0.098842546 5:-0.44537586 6:-0.34561899 7:-0.26157999 8:-0.31560028 9:-0.30961666 10:-0.41393355 11:-0.22640149 12:-0.60592264 13:-0.21933696 14:-0.16083114 15:-0.15391792 16:-0.30765641 17:-0.37343216 18:-0.36310151 19:-0.88086981 20:-0.14419276 21:-0.57808203 22:-0.062323686 23:-0.26375422 24:-0.25234732 25:2.2674313 26:-0.4047187 27:-0.27057403 28:-0.30796358 29:-0.16733444 30:-0.27352092 31:-0.20108834 32:-0.16073692 33:-0.18338262 34:-0.16487801 35:-0.27398148 36:-0.30811864 37:-0.39074841 38:-0.11907394 39:-0.21418162 40:-0.20511942 41:-0.13776088 42:-0.16252463 43:-0.2478133 44:-0.17397934 45:-0.31722111 46:-0.15619448 47:-0.066107452 48:-0.14383133 49:-0.22159693 50:-0.64531434 51:-0.26362848 52:0.62230676 53:-0.34909117 54:8.1007395 55:-0.065764599 56:-0.2402797 57:-0.52339101 #
0.042791749619199168086502993446629 1:-0.019344825 2:-0.1526119 3:-0.21326891 4:-0.098842546 5:-0.11411497 6:0.56358629 7:-0.26157999 8:-0.22421259 9:0.3970294 10:-0.41393355 11:-0.22640149 12:-0.35715175 13:0.53531528 14:0.33889902 15:-0.15391792 16:-0.24052487 17:0.17102507 18:-0.36310151 19:-0.85295856 20:-0.14419276 21:-0.5642367 22:-0.062323686 23:1.3741478 24:-0.14876972 25:-0.40743604 26:-0.4047187 27:-0.27057403 28:-0.30796358 29:-0.1464598 30:-0.27352092 31:-0.20108834 32:-0.16073692 33:-0.18338262 34:-0.16487801 35:-0.27398148 36:-0.20525599 37:0.33697614 38:0.20713905 39:-0.21418162 40:-0.15897194 41:-0.13776088 42:-0.16252463 43:-0.18350655 44:-0.17397934 45:-0.30078185 46:-0.15619448 47:-0.066107452 48:-0.14383133 49:-0.12819271 50:-0.54534143 51:-0.26362848 52:-0.52965069 53:-0.22061887 54:-0.28615856 55:-0.090297662 56:-0.15077041 57:2.2445755 #
-0.042791749619199168086502993446629 1:-0.32373646 2:-0.17667121 3:-0.50017285 4:-0.098842546 5:0.70741206 6:-0.34561899 7:1.6211542 8:-0.31560028 9:-0.30961666 10:-0.41393355 11:-0.22640149 12:-0.60592264 13:-0.21933696 14:-0.16083114 15:-0.15391792 16:3.2234621 17:-0.37343216 18:1.2804446 19:0.58726066 20:-0.14419276 21:-0.57808203 22:-0.062323686 23:-0.26375422 24:-0.25234732 25:-0.40743604 26:-0.4047187 27:-0.27057403 28:-0.30796358 29:-0.16733444 30:-0.27352092 31:-0.20108834 32:-0.16073692 33:-0.18338262 34:-0.16487801 35:-0.27398148 36:-0.30811864 37:-0.39074841 38:-0.11907394 39:-0.21418162 40:-0.20511942 41:-0.13776088 42:-0.16252463 43:-0.2478133 44:-0.17397934 45:-0.31722111 46:-0.15619448 47:-0.066107452 48:-0.14383133 49:-0.22159693 50:-0.64531434 51:-0.26362848 52:1.7917181 53:0.57941324 54:-0.28615856 55:0.28611916 56:0.88753736 57:-0.030710904 #
0.042791749619199168086502993446629 1:-0.32373646 2:-0.17667121 3:-0.50017285 4:-0.098842546 5:-0.44537586 6:-0.34561899 7:-0.26157999 8:-0.31560028 9:-0.30961666 10:-0.41393355 11:-0.22640149 12:-0.60592264 13:-0.21933696 14:-0.16083114 15:-0.15391792 16:-0.30765641 17:-0.37343216 18:-0.36310151 19:-0.66316223 20:-0.14419276 21:-0.30809808 22:-0.062323686 23:-0.26375422 24:-0.25234732 25:1.3659019 26:-0.0019242398 27:-0.27057403 28:-0.30796358 29:-0.16733444 30:0.55357343 31:-0.20108834 32:-0.16073692 33:-0.18338262 34:-0.16487801 35:-0.27398148 36:-0.30811864 37:-0.39074841 38:-0.11907394 39:-0.21418162 40:-0.20511942 41:-0.13776088 42:-0.16252463 43:-0.2478133 44:0.67862749 45:0.0033441042 46:-0.15619448 47:-0.066107452 48:-0.14383133 49:-0.22159693 50:-0.64531434 51:-0.26362848 52:-0.52965069 53:-0.34909117 54:-0.28615856 55:-0.066493958 56:-0.14181948 57:-0.24868453 #
0.042791749619199168086502993446629 1:-0.32373646 2:-0.17667121 3:-0.50017285 4:-0.098842546 5:-0.44537586 6:-0.34561899 7:-0.26157999 8:2.7458875 9:-0.30961666 10:1.1492733 11:-0.22640149 12:-0.60592264 13:-0.21933696 14:-0.16083114 15:-0.15391792 16:-0.30765641 17:-0.37343216 18:-0.36310151 19:-0.88086981 20:-0.14419276 21:-0.57808203 22:-0.062323686 23:-0.26375422 24:-0.25234732 25:-0.40743604 26:-0.4047187 27:-0.27057403 28:-0.30796358 29:-0.16733444 30:-0.27352092 31:-0.20108834 32:-0.16073692 33:-0.18338262 34:-0.16487801 35:-0.27398148 36:-0.30811864 37:2.8597546 38:-0.11907394 39:-0.21418162 40:-0.20511942 41:-0.13776088 42:-0.16252463 43:-0.2478133 44:-0.17397934 45:-0.31722111 46:-0.15619448 47:-0.066107452 48:-0.14383133 49:1.221923 50:1.676784 51:1.3259642 52:0.95683992 53:-0.34909117 54:-0.28615856 55:-0.019704314 56:-0.088113904 57:0.011092257 #
-0.042791749619199168086502993446629 1:0.19807778 2:-0.17667121 3:-0.021999607 4:-0.098842546 5:-0.44537586 6:-0.34561899 7:-0.26157999 8:1.4207659 9:5.7204294 10:-0.41393355 11:-0.22640149 12:-0.22779089 13:-0.21933696 14:-0.16083114 15:-0.15391792 16:-0.30765641 17:-0.37343216 18:-0.36310151 19:-0.59617531 20:-0.14419276 21:-0.40501541 22:-0.062323686 23:-0.26375422 24:-0.25234732 25:-0.090414733 26:0.38021407 27:-0.23269306 28:-0.30796358 29:-0.16733444 30:-0.27352092 31:-0.20108834 32:-0.16073692 33:0.60271871 34:-0.16487801 35:-0.27398148 36:-0.30811864 37:-0.39074841 38:-0.11907394 39:-0.21418162 40:-0.20511942 41:-0.13776088 42:-0.16252463 43:-0.2478133 44:-0.17397934 45:-0.31722111 46:-0.15619448 47:-0.066107452 48:-0.14383133 49:0.23693292 50:0.090849921 51:0.40961075 52:-0.52965069 53:-0.13886377 54:-0.28615856 55:-0.051752016 56:-0.043359254 57:0.82923985 #
-0.042791749619199168086502993446629 1:-0.32373646 2:-0.17667121 3:-0.50017285 4:-0.098842546 5:0.0051389523 6:-0.34561899 7:-0.26157999 8:1.2379905 9:-0.30961666 10:3.552412 11:-0.22640149 12:0.74739099 13:0.80699009 14:-0.16083114 15:-0.15391792 16:-0.30765641 17:0.46800172 18:-0.36310151 19:-0.12168445 20:-0.14419276 21:-0.57808203 22:-0.062323686 23:-0.26375422 24:-0.25234732 25:-0.23901847 26:-0.053564552 27:0.051414166 28:-0.30796358 29:-0.16733444 30:-0.27352092 31:-0.20108834 32:-0.16073692 33:-0.18338262 34:-0.16487801 35:0.40646356 36:-0.30811864 37:0.43400607 38:-0.11907394 39:-0.21418162 40:-0.20511942 41:-0.13776088 42:-0.16252463 43:-0.2478133 44:5.0291085 45:-0.31722111 46:-0.15619448 47:-0.066107452 48:-0.14383133 49:-0.22159693 50:-0.39538205 51:1.7934915 52:-0.52965069 53:-0.34909117 54:-0.28615856 55:-0.090341866 56:-0.25818154 57:-0.36513618 #
0.042791749619199168086502993446629 1:-0.32373646 2:-0.17667121 3:-0.50017285 4:-0.098842546 5:-0.44537586 6:-0.34561899 7:-0.26157999 8:-0.31560028 9:-0.30961666 10:-0.41393355 11:5.3073058 12:0.61803013 13:-0.21933696 14:-0.16083114 15:-0.15391792 16:-0.30765641 17:-0.37343216 18:-0.36310151 19:0.49236253 20:-0.14419276 21:-0.57808203 22:-0.062323686 23:-0.26375422 24:-0.25234732 25:-0.40743604 26:-0.4047187 27:-0.27057403 28:-0.30796358 29:-0.16733444 30:-0.27352092 31:-0.20108834 32:-0.16073692 33:-0.18338262 34:-0.16487801 35:-0.27398148 36:-0.30811864 37:-0.39074841 38:-0.11907394 39:-0.21418162 40:-0.20511942 41:-0.13776088 42:-0.16252463 43:-0.2478133 44:-0.17397934 45:-0.31722111 46:-0.15619448 47:-0.066107452 48:-0.14383133 49:-0.22159693 50:-0.64531434 51:-0.26362848 52:3.2054842 53:-0.34909117 54:-0.28615856 55:-0.091756389 56:-0.28503433 57:-0.5801239 #
0.042791749619199168086502993446629 1:-0.32373646 2:-0.17667121 3:-0.50017285 4:-0.098842546 5:7.8361464 6:-0.34561899 7:6.490294 8:-0.31560028 9:-0.30961666 10:-0.41393355 11:-0.22640149 12:2.4987381 13:-0.21933696 14:-0.16083114 15:-0.15391792 16:-0.30765641 17:-0.37343216 18:-0.36310151 19:2.6080334 20:-0.14419276 21:-0.57808203 22:-0.062323686 23:-0.26375422 24:-0.25234732 25:-0.40743604 26:-0.4047187 27:-0.27057403 28:-0.30796358 29:-0.16733444 30:-0.27352092 31:-0.20108834 32:-0.16073692 33:-0.18338262 34:-0.16487801 35:-0.27398148 36:-0.30811864 37:-0.39074841 38:-0.11907394 39:-0.21418162 40:-0.20511942 41:-0.13776088 42:-0.16252463 43:-0.2478133 44:-0.17397934 45:-0.31722111 46:-0.15619448 47:-0.066107452 48:-0.14383133 49:-0.22159693 50:-0.64531434 51:-0.26362848 52:-0.52965069 53:-0.34909117 54:-0.28615856 55:0.086627744 56:0.20726676 57:-0.43978468 #
0.042791749619199168086502993446629 1:-0.32373646 2:-0.17667121 3:-0.50017285 4:-0.098842546 5:-0.44537586 6:-0.34561899 7:-0.26157999 8:-0.31560028 9:-0.30961666 10:-0.41393355 11:-0.22640149 12:-0.60592264 13:-0.21933696 14:-0.16083114 15:-0.15391792 16:-0.30765641 17:-0.37343216 18:-0.36310151 19:-0.66316223 20:-0.14419276 21:-0.30809808 22:-0.062323686 23:-0.26375422 24:-0.25234732 25:1.3659019 26:-0.0019242398 27:-0.27057403 28:-0.30796358 29:-0.16733444 30:0.55357343 31:-0.20108834 32:-0.16073692 33:-0.18338262 34:-0.16487801 35:-0.27398148 36:-0.30811864 37:-0.39074841 38:-0.11907394 39:-0.21418162 40:-0.20511942 41:-0.13776088 42:-0.16252463 43:-0.2478133 44:0.67862749 45:0.0033441042 46:-0.15619448 47:-0.066107452 48:-0.14383133 49:-0.22159693 50:-0.64531434 51:-0.26362848 52:-0.52965069 53:-0.34909117 54:-0.28615856 55:-0.066493958 56:-0.14181948 57:-0.24868453 #
-0.042791749619199168086502993446629 1:-0.32373646 2:17.001671 3:-0.50017285 4:-0.098842546 5:-0.44537586 6:-0.34561899 7:-0.26157999 8:-0.31560028 9:-0.30961666 10:-0.41393355 11:-0.22640149 12:-0.60592264 13:-0.21933696 14:-0.16083114 15:-0.15391792 16:-0.30765641 17:-0.37343216 18:-0.36310151 19:-0.88086981 20:-0.14419276 21:-0.57808203 22:-0.062323686 23:-0.26375422 24:-0.25234732 25:-0.40743604 26:-0.4047187 27:-0.27057403 28:-0.30796358 29:-0.16733444 30:-0.27352092 31:-0.20108834 32:-0.16073692 33:-0.18338262 34:-0.16487801 35:-0.27398148 36:-0.30811864 37:-0.39074841 38:-0.11907394 39:-0.21418162 40:-0.20511942 41:-0.13776088 42:-0.16252463 43:-0.2478133 44:-0.17397934 45:-0.31722111 46:-0.15619448 47:-0.066107452 48:-0.14383133 49:-0.22159693 50:-0.64531434 51:-0.26362848 52:-0.52965069 53:-0.34909117 54:-0.28615856 55:-0.08196526 56:-0.28503433 57:-0.60998327 #
-0.042791749619199168086502993446629 1:-0.32373646 2:-0.17667121 3:-0.50017285 4:-0.098842546 5:-0.44537586 6:-0.34561899 7:-0.26157999 8:-0.31560028 9:-0.30961666 10:-0.41393355 11:-0.22640149 12:-0.60592264 13:-0.21933696 14:-0.16083114 15:-0.15391792 16:-0.30765641 17:-0.37343216 18:-0.36310151 19:1.4413441 20:-0.14419276 21:-0.57808203 22:-0.062323686 23:-0.26375422 24:-0.25234732 25:-0.40743604 26:-0.4047187 27:-0.27057403 28:-0.30796358 29:-0.16733444 30:-0.27352092 31:-0.20108834 32:-0.16073692 33:-0.18338262 34:-0.16487801 35:-0.27398148 36:-0.30811864 37:-0.39074841 38:-0.11907394 39:-0.21418162 40:-0.20511942 41:-0.13776088 42:-0.16252463 43:-0.2478133 44:-0.17397934 45:-0.31722111 46:-0.15619448 47:-0.066107452 48:-0.14383133 49:-0.22159693 50:-0.64531434 51:-0.26362848 52:1.6229972 53:-0.34909117 54:-0.28615856 55:-0.085833088 56:-0.27608341 57:-0.59803951 #
0.042791749619199168086502993446629 1:-0.32373646 2:-0.17667121 3:-0.50017285 4:-0.098842546 5:-0.44537586 6:-0.34561899 7:2.4434979 8:-0.31560028 9:-0.30961666 10:-0.41393355 11:-0.22640149 12:-0.60592264 13:-0.21933696 14:-0.16083114 15:-0.15391792 16:8.0837851 17:-0.37343216 18:-0.36310151 19:1.2124722 20:-0.14419276 21:-0.57808203 22:-0.062323686 23:-0.26375422 24:-0.25234732 25:-0.40743604 26:-0.4047187 27:-0.27057403 28:-0.30796358 29:-0.16733444 30:-0.27352092 31:-0.20108834 32:-0.16073692 33:-0.18338262 34:-0.16487801 35:-0.27398148 36:-0.30811864 37:-0.39074841 38:-0.11907394 39:-0.21418162 40:-0.20511942 41:-0.13776088 42:-0.16252463 43:-0.2478133 44:-0.17397934 45:-0.31722111 46:-0.15619448 47:-0.066107452 48:-0.14383133 49:-0.22159693 50:-0.64531434 51:-0.26362848 52:-0.52965069 53:-0.34909117 54:-0.28615856 55:-0.099646755 56:-0.32083806 57:-0.5801239 #
0.042791749619199168086502993446629 1:-0.32373646 2:0.90599734 3:-0.50017285 4:-0.098842546 5:-0.44537586 6:-0.34561899 7:-0.26157999 8:-0.31560028 9:-0.30961666 10:-0.41393355 11:-0.22640149 12:-0.60592264 13:-0.21933696 14:-0.16083114 15:-0.15391792 16:0.90071112 17:-0.37343216 18:3.0562301 19:1.1454852 20:-0.14419276 21:1.3048829 22:-0.062323686 23:-0.26375422 24:-0.25234732 25:-0.40743604 26:-0.4047187 27:-0.27057403 28:-0.30796358 29:-0.16733444 30:-0.27352092 31:-0.20108834 32:-0.16073692 33:-0.18338262 34:-0.16487801 35:-0.27398148 36:-0.30811864 37:-0.39074841 38:-0.11907394 39:-0.21418162 40:-0.20511942 41:-0.13776088 42:-0.16252463 43:-0.2478133 44:-0.17397934 45:0.42254475 46:-0.15619448 47:-0.066107452 48:-0.14383133 49:-0.22159693 50:-0.64531434 51:-0.26362848 52:-0.049668405 53:0.61445111 54:-0.28615856 55:0.016741656 56:0.03719911 57:-0.35617837 #
-0.042791749619199168086502993446629 1:-0.32373646 2:-0.17667121 3:-0.50017285 4:-0.098842546 5:0.70741206 6:-0.34561899 7:1.6211542 8:-0.31560028 9:-0.30961666 10:-0.41393355 11:-0.22640149 12:-0.60592264 13:-0.21933696 14:-0.16083114 15:-0.15391792 16:3.2234621 17:-0.37343216 18:1.2804446 19:0.58726066 20:-0.14419276 21:-0.57808203 22:-0.062323686 23:-0.26375422 24:-0.25234732 25:-0.40743604 26:-0.4047187 27:-0.27057403 28:-0.30796358 29:-0.16733444 30:-0.27352092 31:-0.20108834 32:-0.16073692 33:-0.18338262 34:-0.16487801 35:-0.27398148 36:-0.30811864 37:-0.39074841 38:-0.11907394 39:-0.21418162 40:-0.20511942 41:-0.13776088 42:-0.16252463 43:-0.2478133 44:-0.17397934 45:-0.31722111 46:-0.15619448 47:-0.066107452 48:-0.14383133 49:-0.22159693 50:-0.64531434 51:-0.26362848 52:1.7917181 53:0.57941324 54:-0.28615856 55:0.28611916 56:0.88753736 57:-0.030710904 #
-0.042791749619199168086502993446629 1:-0.32373646 2:-0.17667121 3:0.62831604 4:-0.098842546 5:-0.061113227 6:2.3365366 7:1.0152167 8:1.0095212 9:-0.30961666 10:0.26267835 11:1.0782938 12:-0.60592264 13:-0.21933696 14:-0.16083114 15:-0.15391792 16:-0.30765641 17:-0.37343216 18:1.3182273 19:1.117574 20:-0.14419276 21:0.4533951 22:-0.062323686 23:-0.26375422 24:-0.25234732 25:-0.26378575 26:-0.10520487 27:-0.27057403 28:-0.30796358 29:-0.16733444 30:-0.27352092 31:-0.20108834 32:-0.16073692 33:-0.18338262 34:-0.16487801 35:-0.27398148 36:-0.30811864 37:-0.39074841 38:-0.11907394 39:-0.21418162 40:-0.20511942 41:-0.13776088 42:-0.16252463 43:-0.2478133 44:-0.17397934 45:-0.078852102 46:-0.15619448 47:-0.066107452 48:-0.14383133 49:0.53412819 50:-0.64531434 51:-0.26362848 52:-0.40165541 53:0.43342194 54:-0.28615856 55:-0.086385638 56:-0.19552505 57:-0.27854392 #
0.0032760208210756277744102327176279 1:-0.32373646 2:-0.17667121 3:0.30315819 4:-0.098842546 5:-0.44537586 6:-0.34561899 7:-0.26157999 8:-0.31560028 9:-0.30961666 10:-0.41393355 11:-0.22640149 12:0.23989838 13:-0.21933696 14:-0.16083114 15:-0.15391792 16:0.8335796 17:-0.37343216 18:1.242662 19:1.7427855 20:-0.14419276 21:0.010344515 22:21.545935 23:-0.26375422 24:-0.25234732 25:-0.40743604 26:-0.4047187 27:-0.27057403 28:-0.30796358 29:-0.16733444 30:-0.27352092 31:-0.20108834 32:-0.16073692 33:-0.18338262 34:-0.16487801 35:-0.27398148 36:-0.30811864 37:0.62806594 38:-0.11907394 39:-0.21418162 40:-0.20511942 41:-0.13776088 42:-0.16252463 43:-0.2478133 44:-0.17397934 45:-0.31722111 46:-0.15619448 47:-0.066107452 48:-0.14383133 49:-0.22159693 50:-0.272688 51:-0.26362848 52:-0.52965069 53:0.12976013 54:4.9662423 55:0.03672174 56:0.04615004 57:0.24100964 #
0.042791749619199168086502993446629 1:-0.32373646 2:-0.17667121 3:-0.50017285 4:-0.098842546 5:-0.44537586 6:-0.34561899 7:-0.26157999 8:-0.31560028 9:-0.30961666 10:-0.41393355 11:-0.22640149 12:-0.60592264 13:-0.21933696 14:-0.16083114 15:-0.15391792 16:-0.30765641 17:-0.37343216 18:-0.36310151 19:-0.66316223 20:-0.14419276 21:-0.30809808 22:-0.062323686 23:-0.26375422 24:-0.25234732 25:1.3659019 26:-0.0019242398 27:-0.27057403 28:-0.30796358 29:-0.16733444 30:0.55357343 31:-0.20108834 32:-0.16073692 33:-0.18338262 34:-0.16487801 35:-0.27398148 36:-0.30811864 37:-0.39074841 38:-0.11907394 39:-0.21418162 40:-0.20511942 41:-0.13776088 42:-0.16252463 43:-0.2478133 44:0.67862749 45:0.0033441042 46:-0.15619448 47:-0.066107452 48:-0.14383133 49:-0.22159693 50:-0.64531434 51:-0.26362848 52:-0.52965069 53:-0.34909117 54:-0.28615856 55:-0.066493958 56:-0.14181948 57:-0.24868453 #
-0.042791749619199168086502993446629 1:1.8939741 2:-0.17667121 3:-0.50017285 4:-0.098842546 5:-0.44537586 6:-0.34561899 7:-0.26157999 8:-0.31560028 9:-0.30961666 10:-0.41393355 11:-0.22640149 12:0.92650604 13:-0.21933696 14:-0.16083114 15:-0.15391792 16:-0.30765641 17:4.7246675 18:-0.36310151 19:-0.59617531 20:-0.14419276 21:-0.57808203 22:-0.062323686 23:-0.26375422 24:-0.25234732 25:1.3758088 26:1.7228622 27:-0.27057403 28:-0.30796358 29:-0.16733444 30:0.80806398 31:-0.20108834 32:-0.16073692 33:-0.18338262 34:-0.16487801 35:-0.27398148 36:0.74108052 37:-0.39074841 38:-0.11907394 39:-0.21418162 40:-0.20511942 41:-0.13776088 42:-0.16252463 43:-0.2478133 44:-0.17397934 45:0.10197955 46:-0.15619448 47:-0.066107452 48:-0.14383133 49:-0.22159693 50:-0.64531434 51:-0.26362848 52:-0.52965069 53:-0.34909117 54:-0.28615856 55:-0.086960286 56:-0.29398528 57:-0.41589716 #
-0.042791749619199168086502993446629 1:-0.32373646 2:-0.17667121 3:-0.50017285 4:-0.098842546 5:-0.44537586 6:-0.34561899 7:-0.26157999 8:-0.31560028 9:-0.30961666 10:-0.41393355 11:-0.22640149 12:-0.60592264 13:-0.21933696 14:-0.16083114 15:-0.15391792 16:-0.30765641 17:-0.37343216 18:-0.36310151 19:-0.88086981 20:-0.14419276 21:-0.57808203 22:-0.062323686 23:-0.26375422 24:-0.25234732 25:5.7843866 26:-0.4047187 27:-0.27057403 28:-0.30796358 29:-0.16733444 30:-0.27352092 31:-0.20108834 32:-0.16073692 33:-0.18338262 34:-0.16487801 35:-0.27398148 36:-0.30811864 37:-0.39074841 38:-0.11907394 39:-0.21418162 40:-0.20511942 41:-0.13776088 42:-0.16252463 43:-0.2478133 44:-0.17397934 45:-0.31722111 46:-0.15619448 47:-0.066107452 48:-0.14383133 49:-0.22159693 50:-0.64531434 51:-0.26362848 52:-0.52965069 53:-0.34909117 54:-0.28615856 55:0.0077019949 56:-0.16867226 57:-0.51443321 #
0.042791749619199168086502993446629 1:-0.32373646 2:1.4112427 3:0.57093525 4:-0.098842546 5:-0.44537586 6:3.9276457 7:-0.26157999 8:0.50688899 9:1.4334437 10:1.3359249 11:-0.22640149 12:1.4539003 13:-0.21933696 14:-0.16083114 15:-0.15391792 16:-0.30765641 17:0.54224592 18:-0.36310151 19:0.48678026 20:-0.14419276 21:0.072648503 22:-0.062323686 23:-0.26375422 24:0.67985106 25:-0.40743604 26:-0.4047187 27:-0.21375258 28:-0.30796358 29:-0.16733444 30:-0.27352092 31:-0.20108834 32:-0.16073692 33:-0.18338262 34:-0.16487801 35:-0.27398148 36:-0.30811864 37:-0.39074841 38:-0.11907394 39:-0.21418162 40:-0.20511942 41:-0.13776088 42:-0.16252463 43:-0.2478133 44:-0.17397934 45:-0.31722111 46:-0.15619448 47:-0.066107452 48:-0.14383133 49:-0.22159693 50:-0.28177646 51:-0.26362848 52:0.17141435 53:0.27575138 54:-0.28615856 55:-0.063775428 56:-0.016506467 57:0.091712639 #
0.042791749619199168086502993446629 1:-0.32373646 2:1.4112427 3:0.57093525 4:-0.098842546 5:-0.44537586 6:3.9276457 7:-0.26157999 8:0.50688899 9:1.4334437 10:1.3359249 11:-0.22640149 12:1.4539003 13:-0.21933696 14:-0.16083114 15:-0.15391792 16:-0.30765641 17:0.54224592 18:-0.36310151 19:0.48678026 20:-0.14419276 21:0.072648503 22:-0.062323686 23:-0.26375422 24:0.67985106 25:-0.40743604 26:-0.4047187 27:-0.21375258 28:-0.30796358 29:-0.16733444 30:-0.27352092 31:-0.20108834 32:-0.16073692 33:-0.18338262 34:-0.16487801 35:-0.27398148 36:-0.30811864 37:-0.39074841 38:-0.11907394 39:-0.21418162 40:-0.20511942 41:-0.13776088 42:-0.16252463 43:-0.2478133 44:-0.17397934 45:-0.31722111 46:-0.15619448 47:-0.066107452 48:-0.14383133 49:-0.22159693 50:-0.28177646 51:-0.26362848 52:0.17432332 53:0.27575138 54:-0.28615856 55:-0.063775428 56:-0.016506467 57:0.091712639 #
-0.012517891924931493982664498787472 1:-0.32373646 2:-0.17667121 3:-0.50017285 4:-0.098842546 5:-0.44537586 6:-0.34561899 7:-0.26157999 8:-0.31560028 9:-0.30961666 10:-0.41393355 11:-0.22640149 12:-0.60592264 13:-0.21933696 14:5.5503707 15:-0.15391792 16:-0.30765641 17:-0.37343216 18:-0.36310151 19:2.2451875 20:-0.14419276 21:2.190984 22:-0.062323686 23:-0.26375422 24:8.0338602 25:-0.40743604 26:-0.4047187 27:-0.27057403 28:-0.30796358 29:-0.16733444 30:-0.27352092 31:-0.20108834 32:-0.16073692 33:-0.18338262 34:-0.16487801 35:-0.27398148 36:-0.30811864 37:-0.39074841 38:-0.11907394 39:-0.21418162 40:-0.20511942 41:-0.13776088 42:-0.16252463 43:-0.2478133 44:-0.17397934 45:-0.31722111 46:-0.15619448 47:-0.066107452 48:-0.14383133 49:0.81434089 50:0.4634763 51:-0.26362848 52:-0.52965069 53:-0.34909117 54:-0.28615856 55:-0.07955616 56:-0.27608341 57:-0.57415199 #
-0.042791749619199168086502993446629 1:-0.32373646 2:0.55713749 3:-0.50017285 4:-0.098842546 5:1.1711773 6:-0.34561899 7:-0.26157999 8:-0.31560028 9:-0.30961666 10:8.1720381 11:-0.22640149 12:-0.60592264 13:-0.21933696 14:-0.16083114 15:3.6626279 16:-0.30765641 17:-0.37343216 18:-0.36310151 19:0.14626332 20:-0.14419276 21:0.69568837 22:-0.062323686 23:-0.26375422 24:-0.25234732 25:-0.10527511 26:0.22529314 27:-0.27057403 28:-0.30796358 29:-0.16733444 30:4.922328 31:-0.20108834 32:-0.16073692 33:-0.18338262 34:-0.16487801 35:-0.27398148 36:-0.30811864 37:1.0889581 38:-0.11907394 39:-0.21418162 40:-0.20511942 41:-0.13776088 42:-0.16252463 43:-0.2478133 44:-0.17397934 45:-0.31722111 46:-0.15619448 47:-0.066107452 48:-0.14383133 49:-0.22159693 50:-0.64531434 51:-0.26362848 52:-0.52965069 53:-0.34909117 54:-0.28615856 55:-0.089126267 56:-0.25818154 57:-0.45172846 #
0.042791749619199168086502993446629 1:-0.32373646 2:-0.17667121 3:-0.50017285 4:-0.098842546 5:-0.44537586 6:-0.34561899 7:-0.26157999 8:-0.31560028 9:-0.30961666 10:-0.41393355 11:-0.22640149 12:-0.60592264 13:-0.21933696 14:-0.16083114 15:-0.15391792 16:-0.30765641 17:-0.37343216 18:-0.36310151 19:-0.66316223 20:-0.14419276 21:-0.30809808 22:-0.062323686 23:-0.26375422 24:-0.25234732 25:1.3659019 26:-0.0019242398 27:-0.27057403 28:-0.30796358 29:-0.16733444 30:0.55357343 31:-0.20108834 32:-0.16073692 33:-0.18338262 34:-0.16487801 35:-0.27398148 36:-0.30811864 37:-0.39074841 38:-0.11907394 39:-0.21418162 40:-0.20511942 41:-0.13776088 42:-0.16252463 43:-0.2478133 44:0.67862749 45:0.0033441042 46:-0.15619448 47:-0.066107452 48:-0.14383133 49:-0.22159693 50:-0.64531434 51:-0.26362848 52:-0.52965069 53:-0.34909117 54:-0.28615856 55:-0.066493958 56:-0.14181948 57:-0.24868453 #
-0.033147394596817078560313518664771 1:-0.32373646 2:-0.17667121 3:-0.50017285 4:-0.098842546 5:0.32314941 6:-0.34561899 7:-0.26157999 8:-0.31560028 9:-0.30961666 10:-0.41393355 11:-0.22640149 12:-0.60592264 13:-0.21933696 14:-0.16083114 15:-0.15391792 16:-0.30765641 17:-0.37343216 18:-0.36310151 19:-0.39521447 20:-0.14419276 21:-0.37732473 22:-0.062323686 23:-0.26375422 24:-0.25234732 25:-0.26378575 26:-0.10520487 27:-0.17902836 28:0.68258494 29:-0.16733444 30:-0.27352092 31:-0.20108834 32:-0.16073692 33:-0.18338262 34:0.51893091 35:0.8867777 36:-0.30811864 37:-0.39074841 38:-0.11907394 39:-0.21418162 40:-0.20511942 41:-0.13776088 42:-0.16252463 43:-0.2478133 44:-0.17397934 45:-0.31722111 46:-0.15619448 47:-0.066107452 48:-0.14383133 49:-0.22159693 50:0.35441491 51:-0.26362848 52:-0.52965069 53:11.552116 54:-0.28615856 55:0.17799684 56:2.8119872 57:0.65904123 #
-0.042791749619199168086502993446629 1:-0.32373646 2:-0.17667121 3:-0.50017285 4:-0.098842546 5:0.70741206 6:-0.34561899 7:1.6211542 8:-0.31560028 9:-0.30961666 10:-0.41393355 11:-0.22640149 12:-0.60592264 13:-0.21933696 14:-0.16083114 15:-0.15391792 16:3.2234621 17:-0.37343216 18:1.2804446 19:0.58726066 20:-0.14419276 21:-0.57808203 22:-0.062323686 23:-0.26375422 24:-0.25234732 25:-0.40743604 26:-0.4047187 27:-0.27057403 28:-0.30796358 29:-0.16733444 30:-0.27352092 31:-0.20108834 32:-0.16073692 33:-0.18338262 34:-0.16487801 35:-0.27398148 36:-0.30811864 37:-0.39074841 38:-0.11907394 39:-0.21418162 40:-0.20511942 41:-0.13776088 42:-0.16252463 43:-0.2478133 44:-0.17397934 45:-0.31722111 46:-0.15619448 47:-0.066107452 48:-0.14383133 49:-0.22159693 50:-0.64531434 51:-0.26362848 52:1.7917181 53:0.57941324 54:-0.28615856 55:0.28611916 56:0.88753736 57:-0.030710904 #
0.042791749619199168086502993446629 1:0.76337653 2:0.12407006 3:-0.50017285 4:-0.098842546 5:0.54840684 6:-0.34561899 7:-0.26157999 8:-0.31560028 9:0.86812675 10:1.3359249 11:-0.22640149 12:0.89665353 13:-0.21933696 14:8.8343115 15:-0.15391792 16:-0.30765641 17:0.86397064 18:-0.36310151 19:0.95568883 20:-0.14419276 21:0.12110716 22:-0.062323686 23:-0.26375422 24:-0.25234732 25:-0.40743604 26:-0.4047187 27:-0.27057403 28:-0.30796358 29:-0.16733444 30:-0.27352092 31:-0.20108834 32:-0.16073692 33:0.20196116 34:-0.16487801 35:-0.27398148 36:-0.30811864 37:-0.39074841 38:-0.11907394 39:-0.21418162 40:-0.20511942 41:-0.13776088 42:-0.16252463 43:-0.2478133 44:-0.17397934 45:-0.31722111 46:-0.15619448 47:-0.066107452 48:-0.14383133 49:-0.22159693 50:-0.272688 51:-0.26362848 52:-0.41038236 53:0.37502545 54:2.3400419 55:-0.05144259 56:-0.043359254 57:-0.0098093236 #
0.042791749619199168086502993446629 1:4.155169 2:-0.17667121 3:0.80045837 4:-0.098842546 5:0.91941905 6:-0.34561899 7:1.2099823 8:-0.31560028 9:-0.30961666 10:1.1726047 11:-0.22640149 12:0.070734173 13:-0.21933696 14:-0.16083114 15:1.9733372 16:0.60533243 17:-0.37343216 18:-0.36310151 19:2.3903258 20:-0.14419276 21:0.37032309 22:-0.062323686 23:1.2413449 24:1.5084718 25:-0.40743604 26:-0.4047187 27:-0.27057403 28:-0.30796358 29:-0.16733444 30:-0.27352092 31:-0.20108834 32:-0.16073692 33:-0.18338262 34:-0.16487801 35:-0.27398148 36:-0.30811864 37:-0.39074841 38:-0.11907394 39:-0.21418162 40:-0.20511942 41:-0.13776088 42:-0.16252463 43:-0.2478133 44:-0.17397934 45:-0.037753999 46:-0.15619448 47:-0.066107452 48:-0.14383133 49:-0.22159693 50:-0.64531434 51:-0.26362848 52:0.53503728 53:0.007127482 54:-0.28615856 55:-0.079865582 56:-0.22237784 57:-0.36513618 #
-0.042791749619199168086502993446629 1:-0.32373646 2:-0.17667121 3:-0.50017285 4:-0.098842546 5:-0.44537586 6:-0.34561899 7:-0.26157999 8:-0.31560028 9:-0.30961666 10:-0.41393355 11:-0.22640149 12:4.2699866 13:-0.21933696 14:-0.16083114 15:-0.15391792 16:-0.30765641 17:-0.37343216 18:-0.36310151 19:-0.88086981 20:-0.14419276 21:-0.57808203 22:-0.062323686 23:-0.26375422 24:-0.25234732 25:-0.40743604 26:-0.4047187 27:-0.27057403 28:-0.30796358 29:-0.16733444 30:-0.27352092 31:-0.20108834 32:-0.16073692 33:-0.18338262 34:-0.16487801 35:-0.27398148 36:-0.30811864 37:-0.39074841 38:-0.11907394 39:-0.21418162 40:-0.20511942 41:-0.13776088 42:-0.16252463 43:-0.2478133 44:-0.17397934 45:-0.31722111 46:-0.15619448 47:-0.066107452 48:-0.14383133 49:-0.22159693 50:-0.64531434 51:-0.26362848 52:-0.52965069 53:-0.34909117 54:-0.28615856 55:-0.067510642 56:-0.28503433 57:-0.55623633 #
0.042791749619199168086502993446629 1:-0.32373646 2:-0.17667121 3:-0.50017285 4:-0.098842546 5:-0.44537586 6:-0.34561899 7:-0.26157999 8:-0.31560028 9:-0.30961666 10:-0.41393355 11:-0.22640149 12:-0.60592264 13:-0.21933696 14:-0.16083114 15:-0.15391792 16:-0.30765641 17:-0.37343216 18:-0.36310151 19:-0.66316223 20:-0.14419276 21:-0.30809808 22:-0.062323686 23:-0.26375422 24:-0.25234732 25:1.3659019 26:-0.0019242398 27:-0.27057403 28:-0.30796358 29:-0.16733444 30:0.55357343 31:-0.20108834 32:-0.16073692 33:-0.18338262 34:-0.16487801 35:-0.27398148 36:-0.30811864 37:-0.39074841 38:-0.11907394 39:-0.21418162 40:-0.20511942 41:-0.13776088 42:-0.16252463 43:-0.2478133 44:0.67862749 45:0.0033441042 46:-0.15619448 47:-0.066107452 48:-0.14383133 49:-0.22159693 50:-0.64531434 51:-0.26362848 52:-0.52965069 53:-0.34909117 54:-0.28615856 55:-0.066493958 56:-0.14181948 57:-0.24868453 #
-0.042791749619199168086502993446629 1:-0.32373646 2:-0.17667121 3:0.62831604 4:-0.098842546 5:-0.061113227 6:2.3365366 7:1.0152167 8:1.0095212 9:-0.30961666 10:0.26267835 11:1.0782938 12:-0.60592264 13:-0.21933696 14:-0.16083114 15:-0.15391792 16:-0.30765641 17:-0.37343216 18:1.3182273 19:1.117574 20:-0.14419276 21:0.4533951 22:-0.062323686 23:-0.26375422 24:-0.25234732 25:-0.26378575 26:-0.10520487 27:-0.27057403 28:-0.30796358 29:-0.16733444 30:-0.27352092 31:-0.20108834 32:-0.16073692 33:-0.18338262 34:-0.16487801 35:-0.27398148 36:-0.30811864 37:-0.39074841 38:-0.11907394 39:-0.21418162 40:-0.20511942 41:-0.13776088 42:-0.16252463 43:-0.2478133 44:-0.17397934 45:-0.078852102 46:-0.15619448 47:-0.066107452 48:-0.14383133 49:0.53412819 50:-0.64531434 51:-0.26362848 52:-0.40165541 53:0.43342194 54:-0.28615856 55:-0.086385638 56:-0.19552505 57:-0.27854392 #
0.042791749619199168086502993446629 1:-0.32373646 2:-0.17667121 3:2.005455 4:-0.098842546 5:-0.44537586 6:-0.34561899 7:-0.26157999 8:-0.31560028 9:-0.30961666 10:-0.41393355 11:-0.22640149 12:0.69763684 13:-0.21933696 14:-0.16083114 15:-0.15391792 16:-0.30765641 17:-0.37343216 18:-0.36310151 19:-0.14959568 20:-0.14419276 21:3.0632398 22:-0.062323686 23:-0.26375422 24:6.5319853 25:-0.40743604 26:-0.4047187 27:-0.27057403 28:-0.30796358 29:-0.16733444 30:-0.27352092 31:-0.20108834 32:-0.16073692 33:-0.18338262 34:-0.16487801 35:-0.27398148 36:-0.30811864 37:-0.39074841 38:-0.11907394 39:-0.21418162 40:-0.20511942 41:-0.13776088 42:-0.16252463 43:-0.2478133 44:-0.17397934 45:-0.31722111 46:-0.15619448 47:-0.066107452 48:-0.14383133 49:-0.22159693 50:-0.64531434 51:-0.26362848 52:-0.52965069 53:0.82467854 54:-0.28615856 55:-0.022290232 56:-0.10601576 57:-0.47561598 #
-0.042791749619199168086502993446629 1:-0.32373646 2:-0.17667121 3:-0.50017285 4:-0.098842546 5:-0.44537586 6:-0.34561899 7:-0.26157999 8:-0.31560028 9:-0.30961666 10:-0.41393355 11:-0.22640149 12:-0.60592264 13:-0.21933696 14:5.5503707 15:-0.15391792 16:-0.30765641 17:-0.37343216 18:-0.36310151 19:2.2451875 20:-0.14419276 21:2.190984 22:-0.062323686 23:-0.26375422 24:8.0338602 25:-0.40743604 26:-0.4047187 27:-0.27057403 28:-0.30796358 29:-0.16733444 30:-0.27352092 31:-0.20108834 32:-0.16073692 33:-0.18338262 34:-0.16487801 35:-0.27398148 36:-0.30811864 37:-0.39074841 38:-0.11907394 39:-0.21418162 40:-0.20511942 41:-0.13776088 42:-0.16252463 43:-0.2478133 44:-0.17397934 45:-0.31722111 46:-0.15619448 47:-0.066107452 48:-0.14383133 49:0.81434089 50:0.4634763 51:-0.26362848 52:-0.52965069 53:-0.34909117 54:-0.28615856 55:-0.07955616 56:-0.27608341 57:-0.57415199 #
-0.042791749619199168086502993446629 1:1.4591289 2:-0.17667121 3:0.28403127 4:-0.098842546 5:1.2109287 6:-0.34561899 7:0.62568551 8:-0.31560028 9:-0.30961666 10:0.052695356 11:-0.22640149 12:0.42896426 13:0.38438484 14:-0.16083114 15:-0.15391792 16:0.24282214 17:0.64123815 18:-0.36310151 19:1.3296993 20:-0.14419276 21:1.0072083 22:-0.062323686 23:0.62159818 24:5.133688 25:-0.40743604 26:-0.4047187 27:-0.27057403 28:-0.30796358 29:-0.16733444 30:-0.27352092 31:-0.20108834 32:-0.16073692 33:-0.18338262 34:-0.16487801 35:-0.27398148 36:-0.30811864 37:-0.39074841 38:-0.11907394 39:-0.21418162 40:-0.20511942 41:-0.13776088 42:0.06047773 43:-0.2478133 44:-0.17397934 45:0.3650074 46:-0.15619448 47:-0.066107452 48:-0.14383133 49:-0.22159693 50:-0.33176291 51:-0.26362848 52:1.989529 53:0.2523928 54:-0.28615856 55:-0.010090005 56:1.5857098 57:0.81132418 #
0.042791749619199168086502993446629 1:-0.32373646 2:0.90599734 3:-0.50017285 4:-0.098842546 5:-0.44537586 6:-0.34561899 7:-0.26157999 8:-0.31560028 9:-0.30961666 10:-0.41393355 11:-0.22640149 12:-0.60592264 13:-0.21933696 14:-0.16083114 15:-0.15391792 16:0.90071112 17:-0.37343216 18:3.0562301 19:1.1454852 20:-0.14419276 21:1.3048829 22:-0.062323686 23:-0.26375422 24:-0.25234732 25:-0.40743604 26:-0.4047187 27:-0.27057403 28:-0.30796358 29:-0.16733444 30:-0.27352092 31:-0.20108834 32:-0.16073692 33:-0.18338262 34:-0.16487801 35:-0.27398148 36:-0.30811864 37:-0.39074841 38:-0.11907394 39:-0.21418162 40:-0.20511942 41:-0.13776088 42:-0.16252463 43:-0.2478133 44:-0.17397934 45:0.42254475 46:-0.15619448 47:-0.066107452 48:-0.14383133 49:-0.22159693 50:-0.64531434 51:-0.26362848 52:-0.049668405 53:0.61445111 54:-0.28615856 55:0.016741656 56:0.03719911 57:-0.35617837 #
-0.042791749619199168086502993446629 1:-0.32373646 2:-0.17667121 3:6.0794911 4:-0.098842546 5:-0.44537586 6:-0.34561899 7:-0.26157999 8:-0.31560028 9:-0.30961666 10:-0.41393355 11:-0.22640149 12:-0.60592264 13:-0.21933696 14:-0.16083114 15:-0.15391792 16:-0.30765641 17:-0.37343216 18:6.1355176 19:-0.88086981 20:-0.14419276 21:1.8033148 22:-0.062323686 23:-0.26375422 24:-0.25234732 25:-0.40743604 26:-0.4047187 27:-0.27057403 28:-0.30796358 29:-0.16733444 30:-0.27352092 31:-0.20108834 32:-0.16073692 33:-0.18338262 34:-0.16487801 35:-0.27398148 36:-0.30811864 37:-0.39074841 38:-0.11907394 39:-0.21418162 40:-0.20511942 41:-0.13776088 42:-0.16252463 43:-0.2478133 44:-0.17397934 45:-0.31722111 46:-0.15619448 47:-0.066107452 48:-0.14383133 49:-0.22159693 50:-0.64531434 51:-0.26362848 52:-0.52965069 53:-0.34909117 54:-0.28615856 55:-0.083578698 56:-0.29398528 57:-0.5801239 #
-0.033788162024556138429698393110812 1:-0.32373646 2:-0.17667121 3:-0.50017285 4:-0.098842546 5:-0.44537586 6:-0.34561899 7:-0.26157999 8:-0.31560028 9:-0.30961666 10:-0.41393355 11:-0.22640149 12:-0.60592264 13:-0.21933696 14:-0.16083114 15:-0.15391792 16:-0.30765641 17:-0.37343216 18:-0.36310151 19:-0.88086981 20:-0.14419276 21:-0.57808203 22:-0.062323686 23:-0.26375422 24:-0.25234732 25:-0.40743604 26:-0.4047187 27:-0.27057403 28:-0.30796358 29:-0.16733444 30:-0.27352092 31:-0.20108834 32:-0.16073692 33:-0.18338262 34:-0.16487801 35:-0.27398148 36:-0.30811864 37:-0.39074841 38:-0.11907394 39:-0.21418162 40:-0.20511942 41:-0.13776088 42:-0.16252463 43:-0.2478133 44:-0.17397934 45:6.0036669 46:-0.15619448 47:-0.066107452 48:-0.14383133 49:-0.22159693 50:-0.64531434 51:-0.26362848 52:-0.52965069 53:-0.34909117 54:-0.28615856 55:-0.092286833 56:-0.31188715 57:-0.62491298 #
-0.042791749619199168086502993446629 1:-0.32373646 2:-0.17667121 3:0.62831604 4:-0.098842546 5:-0.061113227 6:2.3365366 7:1.0152167 8:1.0095212 9:-0.30961666 10:0.26267835 11:1.0782938 12:-0.60592264 13:-0.21933696 14:-0.16083114 15:-0.15391792 16:-0.30765641 17:-0.37343216 18:1.3182273 19:1.117574 20:-0.14419276 21:0.4533951 22:-0.062323686 23:-0.26375422 24:-0.25234732 25:-0.26378575 26:-0.10520487 27:-0.27057403 28:-0.30796358 29:-0.16733444 30:-0.27352092 31:-0.20108834 32:-0.16073692 33:-0.18338262 34:-0.16487801 35:-0.27398148 36:-0.30811864 37:-0.39074841 38:-0.11907394 39:-0.21418162 40:-0.20511942 41:-0.13776088 42:-0.16252463 43:-0.2478133 44:-0.17397934 45:-0.078852102 46:-0.15619448 47:-0.066107452 48:-0.14383133 49:0.53412819 50:-0.64531434 51:-0.26362848 52:-0.40165541 53:0.43342194 54:-0.28615856 55:-0.086385638 56:-0.19552505 57:-0.27854392 #
0.042791749619199168086502993446629 1:0.50246942 2:0.051892161 3:0.24577741 4:-0.098842546 5:-0.19361758 6:-0.34561899 7:-0.26157999 8:2.3803368 9:-0.30961666 10:-0.41393355 11:-0.22640149 12:-0.21784006 13:-0.21933696 14:-0.16083114 15:-0.15391792 16:0.48449567 17:0.59174204 18:2.2250113 19:1.642305 20:-0.14419276 21:1.5956348 22:-0.062323686 23:-0.26375422 24:0.73163986 25:-0.40743604 26:-0.4047187 27:-0.27057403 28:-0.30796358 29:-0.16733444 30:-0.27352092 31:-0.20108834 32:-0.16073692 33:-0.18338262 34:-0.16487801 35:-0.27398148 36:-0.30811864 37:0.070143789 38:-0.11907394 39:-0.21418162 40:-0.20511942 41:-0.13776088 42:-0.16252463 43:-0.2478133 44:-0.17397934 45:-0.31722111 46:-0.15619448 47:-0.066107452 48:-0.14383133 49:-0.22159693 50:-0.64531434 51:-0.26362848 52:0.22086707 53:-0.16222237 54:-0.28615856 55:-0.052967619 56:0.055100966 57:0.27385497 #
0.042791749619199168086502993446629 1:-0.32373646 2:0.64134502 3:0.15014276 4:-0.098842546 5:0.0051389523 6:-0.34561899 7:-0.26157999 8:-0.31560028 9:-0.30961666 10:-0.41393355 11:-0.22640149 12:0.070734173 13:-0.21933696 14:-0.16083114 15:-0.15391792 16:0.148838 17:-0.37343216 18:2.2250113 19:0.079276368 20:-0.14419276 21:0.13495249 22:-0.062323686 23:-0.26375422 24:-0.25234732 25:-0.40743604 26:-0.4047187 27:-0.27057403 28:-0.30796358 29:-0.16733444 30:-0.27352092 31:-0.20108834 32:-0.16073692 33:-0.18338262 34:-0.16487801 35:-0.27398148 36:-0.30811864 37:-0.39074841 38:-0.11907394 39:-0.21418162 40:-0.20511942 41:-0.13776088 42:-0.16252463 43:-0.2478133 44:-0.17397934 45:-0.31722111 46:-0.15619448 47:-0.066107452 48:-0.14383133 49:-0.22159693 50:-0.39538205 51:-0.26362848 52:1.5589995 53:-0.34909117 54:-0.28615856 55:-0.039573889 56:0.2162177 57:0.15143144 #
0.042791749619199168086502993446629 1:-0.32373646 2:-0.17667121 3:0.57093525 4:-0.098842546 5:-0.44537586 6:0.47266576 7:-0.26157999 8:-0.31560028 9:-0.30961666 10:2.6658173 11:-0.22640149 12:0.14039002 13:2.0446198 14:1.1241893 15:-0.15391792 16:-0.065982893 17:-0.37343216 18:-0.36310151 19:-0.35613877 20:-0.14419276 21:-0.57808203 22:-0.062323686 23:0.53306293 24:-0.25234732 25:-0.40743604 26:-0.4047187 27:-0.27057403 28:-0.30796358 29:-0.16733444 30:-0.27352092 31:-0.20108834 32:-0.16073692 33:-0.18338262 34:-0.16487801 35:-0.27398148 36:-0.30811864 37:-0.39074841 38:-0.11907394 39:-0.21418162 40:-0.20511942 41:-0.13776088 42:-0.16252463 43:-0.2478133 44:-0.17397934 45:-0.31722111 46:-0.15619448 47:-0.066107452 48:-0.14383133 49:-0.22159693 50:-0.009123005 51:-0.26362848 52:-0.32602185 53:0.059684336 54:-0.28615856 55:-0.063930139 56:-0.12391762 57:-0.066542186 #
0.042791749619199168086502993446629 1:-0.32373646 2:0.44887063 3:0.4944275 4:-0.098842546 5:0.2436468 6:-0.34561899 7:-0.26157999 8:-0.31560028 9:-0.30961666 10:-0.41393355 11:-0.22640149 12:-0.60592264 13:-0.21933696 14:-0.16083114 15:-0.15391792 16:0.39051151 17:-0.37343216 18:-0.36310151 19:-0.010039551 20:-0.14419276 21:-0.57808203 22:-0.062323686 23:-0.26375422 24:-0.25234732 25:-0.40743604 26:-0.4047187 27:-0.27057403 28:-0.30796358 29:-0.16733444 30:-0.27352092 31:-0.20108834 32:-0.16073692 33:-0.18338262 34:-0.16487801 35:-0.27398148 36:-0.30811864 37:-0.39074841 38:-0.11907394 39:-0.21418162 40:-0.20511942 41:-0.13776088 42:-0.16252463 43:-0.2478133 44:-0.17397934 45:-0.31722111 46:-0.15619448 47:-0.066107452 48:-0.14383133 49:-0.22159693 50:0.22717664 51:-0.26362848 52:1.9924381 53:-0.34909117 54:-0.28615856 55:-0.072682478 56:-0.15077041 57:-0.24569859 #
-0.034316813281068753171965113324404 1:-0.32373646 2:-0.17667121 3:-0.50017285 4:-0.098842546 5:0.32314941 6:-0.34561899 7:-0.26157999 8:-0.31560028 9:-0.30961666 10:-0.41393355 11:-0.22640149 12:-0.60592264 13:-0.21933696 14:-0.16083114 15:-0.15391792 16:-0.30765641 17:-0.37343216 18:-0.36310151 19:-0.39521447 20:-0.14419276 21:-0.37732473 22:-0.062323686 23:-0.26375422 24:-0.25234732 25:-0.26378575 26:-0.10520487 27:-0.17902836 28:0.68258494 29:-0.16733444 30:-0.27352092 31:-0.20108834 32:-0.16073692 33:-0.18338262 34:0.51893091 35:0.8867777 36:-0.30811864 37:-0.39074841 38:-0.11907394 39:-0.21418162 40:-0.20511942 41:-0.13776088 42:-0.16252463 43:-0.2478133 44:-0.17397934 45:-0.31722111 46:-0.15619448 47:-0.066107452 48:-0.14383133 49:-0.22159693 50:0.35441491 51:-0.26362848 52:-0.52965069 53:11.552116 54:-0.28615856 55:0.17799684 56:2.8119872 57:0.65904123 #
-0.011922393882419442950881816045694 1:-0.32373646 2:-0.17667121 3:-0.50017285 4:-0.098842546 5:-0.44537586 6:-0.34561899 7:-0.26157999 8:-0.31560028 9:-0.30961666 10:-0.41393355 11:-0.22640149 12:0.74739099 13:-0.21933696 14:-0.16083114 15:-0.15391792 16:-0.30765641 17:-0.37343216 18:-0.36310151 19:-0.12168445 20:-0.14419276 21:3.2086158 22:-0.062323686 23:-0.26375422 24:-0.25234732 25:-0.40743604 26:-0.4047187 27:0.15874356 28:-0.30796358 29:-0.16733444 30:-0.27352092 31:-0.20108834 32:-0.16073692 33:-0.18338262 34:-0.16487801 35:-0.27398148 36:-0.30811864 37:-0.39074841 38:-0.11907394 39:-0.21418162 40:-0.20511942 41:-0.13776088 42:-0.16252463 43:-0.2478133 44:-0.17397934 45:-0.31722111 46:-0.15619448 47:-0.066107452 48:-0.14383133 49:-0.22159693 50:-0.64531434 51:-0.26362848 52:-0.52965069 53:-0.34909117 54:-0.28615856 55:-0.070759617 56:-0.25818154 57:-0.54727852 #
0.042791749619199168086502993446629 1:-0.32373646 2:-0.17667121 3:-0.50017285 4:-0.098842546 5:-0.44537586 6:-0.34561899 7:-0.26157999 8:-0.31560028 9:-0.30961666 10:-0.41393355 11:-0.22640149 12:-0.60592264 13:-0.21933696 14:-0.16083114 15:-0.15391792 16:-0.30765641 17:-0.37343216 18:-0.36310151 19:-0.66316223 20:-0.14419276 21:-0.30809808 22:-0.062323686 23:-0.26375422 24:-0.25234732 25:1.3659019 26:-0.0019242398 27:-0.27057403 28:-0.30796358 29:-0.16733444 30:0.55357343 31:-0.20108834 32:-0.16073692 33:-0.18338262 34:-0.16487801 35:-0.27398148 36:-0.30811864 37:-0.39074841 38:-0.11907394 39:-0.21418162 40:-0.20511942 41:-0.13776088 42:-0.16252463 43:-0.2478133 44:0.67862749 45:0.0033441042 46:-0.15619448 47:-0.066107452 48:-0.14383133 49:-0.22159693 50:-0.64531434 51:-0.26362848 52:-0.52965069 53:-0.34909117 54:-0.28615856 55:-0.066493958 56:-0.14181948 57:-0.24868453 #
-0.042791749619199168086502993446629 1:-0.32373646 2:-0.17667121 3:-0.50017285 4:-0.098842546 5:-0.44537586 6:-0.34561899 7:-0.26157999 8:-0.31560028 9:-0.30961666 10:-0.41393355 11:-0.22640149 12:0.96630937 13:-0.21933696 14:-0.16083114 15:-0.15391792 16:-0.30765641 17:-0.37343216 18:-0.36310151 19:-0.88086981 20:-0.14419276 21:-0.57808203 22:-0.062323686 23:-0.26375422 24:-0.25234732 25:-0.40743604 26:-0.4047187 27:-0.27057403 28:-0.30796358 29:-0.16733444 30:-0.27352092 31:-0.20108834 32:-0.16073692 33:7.153563 34:-0.16487801 35:-0.27398148 36:-0.30811864 37:-0.39074841 38:-0.11907394 39:-0.21418162 40:-0.20511942 41:-0.13776088 42:-0.16252463 43:-0.2478133 44:13.686348 45:-0.31722111 46:-0.15619448 47:-0.066107452 48:-0.14383133 49:-0.22159693 50:-0.64531434 51:-0.26362848 52:-0.52965069 53:-0.34909117 54:-0.28615856 55:-0.093922369 56:-0.3029362 57:-0.53533477 #
-0.035420093412123043741246419813251 1:-0.32373646 2:17.001671 3:-0.50017285 4:-0.098842546 5:-0.44537586 6:-0.34561899 7:-0.26157999 8:-0.31560028 9:-0.30961666 10:-0.41393355 11:-0.22640149 12:-0.60592264 13:-0.21933696 14:-0.16083114 15:-0.15391792 16:-0.30765641 17:-0.37343216 18:-0.36310151 19:-0.88086981 20:-0.14419276 21:-0.57808203 22:-0.062323686 23:-0.26375422 24:-0.25234732 25:-0.40743604 26:-0.4047187 27:-0.27057403 28:-0.30796358 29:-0.16733444 30:-0.27352092 31:-0.20108834 32:-0.16073692 33:-0.18338262 34:-0.16487801 35:-0.27398148 36:-0.30811864 37:-0.39074841 38:-0.11907394 39:-0.21418162 40:-0.20511942 41:-0.13776088 42:-0.16252463 43:-0.2478133 44:-0.17397934 45:-0.31722111 46:-0.15619448 47:-0.066107452 48:-0.14383133 49:-0.22159693 50:-0.64531434 51:-0.26362848 52:-0.52965069 53:-0.34909117 54:-0.28615856 55:-0.08196526 56:-0.28503433 57:-0.60998327 #
-0.042791749619199168086502993446629 1:-0.32373646 2:-0.17667121 3:-0.50017285 4:-0.098842546 5:-0.44537586 6:-0.34561899 7:-0.26157999 8:-0.31560028 9:-0.30961666 10:-0.41393355 11:-0.22640149 12:-0.60592264 13:-0.21933696 14:-0.16083114 15:-0.15391792 16:-0.30765641 17:-0.37343216 18:-0.36310151 19:-0.88086981 20:-0.14419276 21:-0.57808203 22:-0.062323686 23:-0.26375422 24:-0.25234732 25:-0.40743604 26:-0.4047187 27:-0.10010969 28:-0.30796358 29:0.39628083 30:-0.27352092 31:-0.20108834 32:-0.16073692 33:-0.18338262 34:-0.16487801 35:-0.27398148 36:-0.30811864 37:-0.39074841 38:-0.11907394 39:-0.21418162 40:-0.20511942 41:-0.13776088 42:-0.16252463 43:-0.2478133 44:-0.17397934 45:-0.31722111 46:-0.15619448 47:-0.066107452 48:-0.14383133 49:-0.22159693 50:1.4132191 51:3.1212687 52:-0.52965069 53:-0.34909117 54:1.6199546 55:-0.032523394 56:-0.07916297 57:0.0021344363 #
0.042791749619199168086502993446629 1:-0.32373646 2:-0.17667121 3:-0.21326891 4:-0.098842546 5:-0.047862791 6:-0.34561899 7:0.063029341 8:-0.31560028 9:2.5640774 10:-0.41393355 11:1.1232833 12:-0.60592264 13:-0.21933696 14:-0.16083114 15:-0.15391792 16:0.92756373 17:-0.37343216 18:2.5272727 19:-0.54035282 20:-0.14419276 21:-0.57808203 22:-0.062323686 23:-0.26375422 24:-0.25234732 25:-0.40743604 26:-0.4047187 27:-0.27057403 28:-0.30796358 29:-0.16733444 30:-0.27352092 31:-0.20108834 32:-0.16073692 33:-0.18338262 34:-0.16487801 35:-0.27398148 36:-0.30811864 37:0.33697614 38:-0.11907394 39:-0.21418162 40:-0.20511942 41:-0.13776088 42:-0.16252463 43:-0.2478133 44:-0.17397934 45:-0.31722111 46:-0.15619448 47:-0.066107452 48:-0.14383133 49:-0.22159693 50:-0.26814377 51:-0.26362848 52:1.5997252 53:4.0481653 54:0.13742214 55:-0.0099573936 56:0.073002823 57:2.7312837 #
0.042791749619199168086502993446629 1:-0.32373646 2:0.90599734 3:-0.50017285 4:-0.098842546 5:-0.44537586 6:-0.34561899 7:-0.26157999 8:-0.31560028 9:-0.30961666 10:-0.41393355 11:-0.22640149 12:-0.60592264 13:-0.21933696 14:-0.16083114 15:-0.15391792 16:0.90071112 17:-0.37343216 18:3.0562301 19:1.1454852 20:-0.14419276 21:1.3048829 22:-0.062323686 23:-0.26375422 24:-0.25234732 25:-0.40743604 26:-0.4047187 27:-0.27057403 28:-0.30796358 29:-0.16733444 30:-0.27352092 31:-0.20108834 32:-0.16073692 33:-0.18338262 34:-0.16487801 35:-0.27398148 36:-0.30811864 37:-0.39074841 38:-0.11907394 39:-0.21418162 40:-0.20511942 41:-0.13776088 42:-0.16252463 43:-0.2478133 44:-0.17397934 45:0.42254475 46:-0.15619448 47:-0.066107452 48:-0.14383133 49:-0.22159693 50:-0.64531434 51:-0.26362848 52:-0.049668405 53:0.61445111 54:-0.28615856 55:0.016741656 56:0.03719911 57:-0.35617837 #
-0.042791749619199168086502993446629 1:-0.32373646 2:-0.17667121 3:-0.50017285 4:-0.098842546 5:0.70741206 6:-0.34561899 7:1.6211542 8:-0.31560028 9:-0.30961666 10:-0.41393355 11:-0.22640149 12:-0.60592264 13:-0.21933696 14:-0.16083114 15:-0.15391792 16:3.2234621 17:-0.37343216 18:1.2804446 19:0.58726066 20:-0.14419276 21:-0.57808203 22:-0.062323686 23:-0.26375422 24:-0.25234732 25:-0.40743604 26:-0.4047187 27:-0.27057403 28:-0.30796358 29:-0.16733444 30:-0.27352092 31:-0.20108834 32:-0.16073692 33:-0.18338262 34:-0.16487801 35:-0.27398148 36:-0.30811864 37:-0.39074841 38:-0.11907394 39:-0.21418162 40:-0.20511942 41:-0.13776088 42:-0.16252463 43:-0.2478133 44:-0.17397934 45:-0.31722111 46:-0.15619448 47:-0.066107452 48:-0.14383133 49:-0.22159693 50:-0.64531434 51:-0.26362848 52:1.7917181 53:0.57941324 54:-0.28615856 55:0.28611916 56:0.88753736 57:-0.030710904 #
0.042791749619199168086502993446629 1:-0.32373646 2:-0.17667121 3:-0.50017285 4:-0.098842546 5:-0.44537586 6:-0.34561899 7:-0.26157999 8:2.7458875 9:-0.30961666 10:1.1492733 11:-0.22640149 12:-0.60592264 13:-0.21933696 14:-0.16083114 15:-0.15391792 16:-0.30765641 17:-0.37343216 18:-0.36310151 19:-0.88086981 20:-0.14419276 21:-0.57808203 22:-0.062323686 23:-0.26375422 24:-0.25234732 25:-0.40743604 26:-0.4047187 27:-0.27057403 28:-0.30796358 29:-0.16733444 30:-0.27352092 31:-0.20108834 32:-0.16073692 33:-0.18338262 34:-0.16487801 35:-0.27398148 36:-0.30811864 37:2.8597546 38:-0.11907394 39:-0.21418162 40:-0.20511942 41:-0.13776088 42:-0.16252463 43:-0.2478133 44:-0.17397934 45:-0.31722111 46:-0.15619448 47:-0.066107452 48:-0.14383133 49:1.221923 50:1.676784 51:1.3259642 52:0.95683992 53:-0.34909117 54:-0.28615856 55:-0.019704314 56:-0.088113904 57:0.011092257 #
-0.042791749619199168086502993446629 1:0.19807778 2:-0.17667121 3:-0.021999607 4:-0.098842546 5:-0.44537586 6:-0.34561899 7:-0.26157999 8:1.4207659 9:5.7204294 10:-0.41393355 11:-0.22640149 12:-0.22779089 13:-0.21933696 14:-0.16083114 15:-0.15391792 16:-0.30765641 17:-0.37343216 18:-0.36310151 19:-0.59617531 20:-0.14419276 21:-0.40501541 22:-0.062323686 23:-0.26375422 24:-0.25234732 25:-0.090414733 26:0.38021407 27:-0.23269306 28:-0.30796358 29:-0.16733444 30:-0.27352092 31:-0.20108834 32:-0.16073692 33:0.60271871 34:-0.16487801 35:-0.27398148 36:-0.30811864 37:-0.39074841 38:-0.11907394 39:-0.21418162 40:-0.20511942 41:-0.13776088 42:-0.16252463 43:-0.2478133 44:-0.17397934 45:-0.31722111 46:-0.15619448 47:-0.066107452 48:-0.14383133 49:0.23693292 50:0.090849921 51:0.40961075 52:-0.52965069 53:-0.13886377 54:-0.28615856 55:-0.051752016 56:-0.043359254 57:0.82923985 #
-0.042791749619199168086502993446629 1:-0.062829345 2:-0.17667121 3:-0.13676119 4:-0.098842546 5:-0.10086454 6:-0.072857417 7:-0.26157999 8:0.5525828 9:-0.30961666 10:-0.27394488 11:-0.22640149 12:0.50857097 13:-0.038220409 14:1.1955793 15:-0.15391792 16:-0.30765641 17:0.91346675 18:-0.36310151 19:-0.88086981 20:2.7596867 21:-0.53654605 22:-0.062323686 23:1.462683 24:-0.25234732 25:1.1925309 26:-0.4047187 27:-0.27057403 28:-0.30796358 29:-0.16733444 30:-0.27352092 31:-0.20108834 32:-0.16073692 33:-0.090900108 34:-0.16487801 35:-0.27398148 36:0.082759462 37:-0.07540112 38:-0.11907394 39:-0.21418162 40:-0.20511942 41:-0.13776088 42:-0.16252463 43:-0.2478133 44:-0.042809062 45:-0.31722111 46:-0.15619448 47:-0.066107452 48:-0.14383133 49:0.3897762 50:-0.11364016 51:-0.26362848 52:-0.52965069 53:0.018806782 54:-0.28615856 55:-0.074870564 56:-0.10601576 57:1.6055843 #
-0.042791749619199168086502993446629 1:-0.32373646 2:-0.17667121 3:0.62831604 4:-0.098842546 5:-0.061113227 6:2.3365366 7:1.0152167 8:1.0095212 9:-0.30961666 10:0.26267835 11:1.0782938 12:-0.60592264 13:-0.21933696 14:-0.16083114 15:-0.15391792 16:-0.30765641 17:-0.37343216 18:1.3182273 19:1.117574 20:-0.14419276 21:0.4533951 22:-0.062323686 23:-0.26375422 24:-0.25234732 25:-0.26378575 26:-0.10520487 27:-0.27057403 28:-0.30796358 29:-0.16733444 30:-0.27352092 31:-0.20108834 32:-0.16073692 33:-0.18338262 34:-0.16487801 35:-0.27398148 36:-0.30811864 37:-0.39074841 38:-0.11907394 39:-0.21418162 40:-0.20511942 41:-0.13776088 42:-0.16252463 43:-0.2478133 44:-0.17397934 45:-0.078852102 46:-0.15619448 47:-0.066107452 48:-0.14383133 49:0.53412819 50:-0.64531434 51:-0.26362848 52:-0.40165541 53:0.43342194 54:-0.28615856 55:-0.086385638 56:-0.19552505 57:-0.27854392 #
0.042791749619199168086502993446629 1:-0.32373646 2:-0.17667121 3:-0.50017285 4:-0.098842546 5:-0.44537586 6:-0.34561899 7:-0.26157999 8:-0.31560028 9:-0.30961666 10:-0.41393355 11:-0.22640149 12:-0.60592264 13:-0.21933696 14:-0.16083114 15:-0.15391792 16:-0.30765641 17:-0.37343216 18:-0.36310151 19:-0.66316223 20:-0.14419276 21:-0.30809808 22:-0.062323686 23:-0.26375422 24:-0.25234732 25:1.3659019 26:-0.0019242398 27:-0.27057403 28:-0.30796358 29:-0.16733444 30:0.55357343 31:-0.20108834 32:-0.16073692 33:-0.18338262 34:-0.16487801 35:-0.27398148 36:-0.30811864 37:-0.39074841 38:-0.11907394 39:-0.21418162 40:-0.20511942 41:-0.13776088 42:-0.16252463 43:-0.2478133 44:0.67862749 45:0.0033441042 46:-0.15619448 47:-0.066107452 48:-0.14383133 49:-0.22159693 50:-0.64531434 51:-0.26362848 52:-0.52965069 53:-0.34909117 54:-0.28615856 55:-0.066493958 56:-0.14181948 57:-0.24868453 #
-0.042791749619199168086502993446629 1:-0.32373646 2:-0.17667121 3:-0.50017285 4:-0.098842546 5:-0.44537586 6:-0.34561899 7:-0.26157999 8:-0.31560028 9:-0.30961666 10:-0.41393355 11:-0.22640149 12:-0.60592264 13:-0.21933696 14:-0.16083114 15:-0.15391792 16:-0.30765641 17:-0.37343216 18:-0.36310151 19:0.97801787 20:-0.14419276 21:4.032413 22:-0.062323686 23:-0.26375422 24:-0.25234732 25:-0.40743604 26:-0.4047187 27:-0.27057403 28:-0.30796358 29:-0.16733444 30:-0.27352092 31:-0.20108834 32:-0.16073692 33:-0.18338262 34:-0.16487801 35:-0.27398148 36:-0.30811864 37:-0.39074841 38:-0.11907394 39:-0.21418162 40:-0.20511942 41:-0.13776088 42:-0.16252463 43:-0.2478133 44:-0.17397934 45:-0.31722111 46:-0.15619448 47:-0.066107452 48:-0.14383133 49:-0.22159693 50:-0.64531434 51:-0.26362848 52:-0.52965069 53:-0.34909117 54:-0.28615856 55:-0.093016192 56:-0.3029362 57:-0.59803951 #
0.042791749619199168086502993446629 1:-0.32373646 2:-0.17667121 3:-0.50017285 4:-0.098842546 5:-0.44537586 6:-0.34561899 7:-0.26157999 8:-0.31560028 9:-0.30961666 10:-0.41393355 11:-0.22640149 12:-0.60592264 13:-0.21933696 14:-0.16083114 15:-0.15391792 16:-0.30765641 17:-0.37343216 18:-0.36310151 19:-0.66316223 20:-0.14419276 21:-0.30809808 22:-0.062323686 23:-0.26375422 24:-0.25234732 25:1.3659019 26:-0.0019242398 27:-0.27057403 28:-0.30796358 29:-0.16733444 30:0.55357343 31:-0.20108834 32:-0.16073692 33:-0.18338262 34:-0.16487801 35:-0.27398148 36:-0.30811864 37:-0.39074841 38:-0.11907394 39:-0.21418162 40:-0.20511942 41:-0.13776088 42:-0.16252463 43:-0.2478133 44:0.67862749 45:0.0033441042 46:-0.15619448 47:-0.066107452 48:-0.14383133 49:-0.22159693 50:-0.64531434 51:-0.26362848 52:-0.52965069 53:-0.34909117 54:-0.28615856 55:-0.066493958 56:-0.14181948 57:-0.24868453 #
-0.042791749619199168086502993446629 1:-0.062829345 2:-0.17667121 3:-0.13676119 4:-0.098842546 5:-0.10086454 6:-0.072857417 7:-0.26157999 8:0.5525828 9:-0.30961666 10:-0.27394488 11:-0.22640149 12:0.50857097 13:-0.038220409 14:1.1955793 15:-0.15391792 16:-0.30765641 17:0.91346675 18:-0.36310151 19:-0.88086981 20:2.7596867 21:-0.53654605 22:-0.062323686 23:1.462683 24:-0.25234732 25:1.1925309 26:-0.4047187 27:-0.27057403 28:-0.30796358 29:-0.16733444 30:-0.27352092 31:-0.20108834 32:-0.16073692 33:-0.090900108 34:-0.16487801 35:-0.27398148 36:0.082759462 37:-0.07540112 38:-0.11907394 39:-0.21418162 40:-0.20511942 41:-0.13776088 42:-0.16252463 43:-0.2478133 44:-0.042809062 45:-0.31722111 46:-0.15619448 47:-0.066107452 48:-0.14383133 49:0.3897762 50:-0.11364016 51:-0.26362848 52:-0.52965069 53:0.018806782 54:-0.28615856 55:-0.074870564 56:-0.10601576 57:1.6055843 #
0.042791749619199168086502993446629 1:-0.32373646 2:-0.17667121 3:-0.50017285 4:-0.098842546 5:-0.44537586 6:-0.34561899 7:-0.26157999 8:-0.31560028 9:-0.30961666 10:-0.41393355 11:-0.22640149 12:-0.60592264 13:-0.21933696 14:-0.16083114 15:-0.15391792 16:1.4109107 17:-0.37343216 18:-0.36310151 19:1.2627124 20:-0.14419276 21:2.0802214 22:-0.062323686 23:-0.26375422 24:-0.25234732 25:-0.40743604 26:-0.4047187 27:-0.27057403 28:-0.30796358 29:-0.16733444 30:-0.27352092 31:-0.20108834 32:-0.16073692 33:-0.18338262 34:-0.16487801 35:-0.27398148 36:-0.30811864 37:-0.39074841 38:-0.11907394 39:-0.21418162 40:-0.20511942 41:-0.13776088 42:-0.16252463 43:-0.2478133 44:-0.17397934 45:0.73489034 46:-0.15619448 47:-0.066107452 48:-0.14383133 49:-0.22159693 50:-0.64531434 51:-0.26362848 52:0.13941552 53:0.99402839 54:-0.28615856 55:0.00065150071 56:0.03719911 57:-0.42186904 #
0.042791749619199168086502993446629 1:-0.32373646 2:0.90599734 3:-0.50017285 4:-0.098842546 5:-0.44537586 6:-0.34561899 7:-0.26157999 8:-0.31560028 9:-0.30961666 10:-0.41393355 11:-0.22640149 12:-0.60592264 13:-0.21933696 14:-0.16083114 15:-0.15391792 16:0.90071112 17:-0.37343216 18:3.0562301 19:1.1454852 20:-0.14419276 21:1.3048829 22:-0.062323686 23:-0.26375422 24:-0.25234732 25:-0.40743604 26:-0.4047187 27:-0.27057403 28:-0.30796358 29:-0.16733444 30:-0.27352092 31:-0.20108834 32:-0.16073692 33:-0.18338262 34:-0.16487801 35:-0.27398148 36:-0.30811864 37:-0.39074841 38:-0.11907394 39:-0.21418162 40:-0.20511942 41:-0.13776088 42:-0.16252463 43:-0.2478133 44:-0.17397934 45:0.42254475 46:-0.15619448 47:-0.066107452 48:-0.14383133 49:-0.22159693 50:-0.64531434 51:-0.26362848 52:-0.049668405 53:0.61445111 54:-0.28615856 55:0.016741656 56:0.03719911 57:-0.35617837 #
-0.042791749619199168086502993446629 1:-0.32373646 2:-0.17667121 3:-0.50017285 4:-0.098842546 5:0.70741206 6:-0.34561899 7:1.6211542 8:-0.31560028 9:-0.30961666 10:-0.41393355 11:-0.22640149 12:-0.60592264 13:-0.21933696 14:-0.16083114 15:-0.15391792 16:3.2234621 17:-0.37343216 18:1.2804446 19:0.58726066 20:-0.14419276 21:-0.57808203 22:-0.062323686 23:-0.26375422 24:-0.25234732 25:-0.40743604 26:-0.4047187 27:-0.27057403 28:-0.30796358 29:-0.16733444 30:-0.27352092 31:-0.20108834 32:-0.16073692 33:-0.18338262 34:-0.16487801 35:-0.27398148 36:-0.30811864 37:-0.39074841 38:-0.11907394 39:-0.21418162 40:-0.20511942 41:-0.13776088 42:-0.16252463 43:-0.2478133 44:-0.17397934 45:-0.31722111 46:-0.15619448 47:-0.066107452 48:-0.14383133 49:-0.22159693 50:-0.64531434 51:-0.26362848 52:1.7917181 53:0.57941324 54:-0.28615856 55:0.28611916 56:0.88753736 57:-0.030710904 #
0.042791749619199168086502993446629 1:0.76337653 2:0.12407006 3:-0.50017285 4:-0.098842546 5:0.54840684 6:-0.34561899 7:-0.26157999 8:-0.31560028 9:0.86812675 10:1.3359249 11:-0.22640149 12:0.89665353 13:-0.21933696 14:8.8343115 15:-0.15391792 16:-0.30765641 17:0.86397064 18:-0.36310151 19:0.95568883 20:-0.14419276 21:0.12110716 22:-0.062323686 23:-0.26375422 24:-0.25234732 25:-0.40743604 26:-0.4047187 27:-0.27057403 28:-0.30796358 29:-0.16733444 30:-0.27352092 31:-0.20108834 32:-0.16073692 33:0.20196116 34:-0.16487801 35:-0.27398148 36:-0.30811864 37:-0.39074841 38:-0.11907394 39:-0.21418162 40:-0.20511942 41:-0.13776088 42:-0.16252463 43:-0.2478133 44:-0.17397934 45:-0.31722111 46:-0.15619448 47:-0.066107452 48:-0.14383133 49:-0.22159693 50:-0.272688 51:-0.26362848 52:-0.41038236 53:0.37502545 54:2.3400419 55:-0.05144259 56:-0.043359254 57:-0.0098093236 #
-0.042684097731794483354672564701104 1:-0.32373646 2:0.11204042 3:-0.50017285 4:-0.098842546 5:-0.12736541 6:-0.34561899 7:-0.26157999 8:0.78105205 9:-0.30961666 10:0.72930723 11:-0.22640149 12:-0.60592264 13:-0.21933696 14:10.404892 15:-0.15391792 16:-0.30765641 17:-0.37343216 18:-0.36310151 19:-0.32822752 20:-0.14419276 21:-0.57808203 22:-0.062323686 23:-0.26375422 24:-0.25234732 25:-0.1647166 26:-0.4047187 27:-0.19481209 28:-0.30796358 29:-0.16733444 30:-0.27352092 31:0.34969041 32:-0.16073692 33:-0.18338262 34:-0.16487801 35:0.20633267 36:-0.30811864 37:1.4043055 38:-0.11907394 39:-0.21418162 40:-0.20511942 41:-0.13776088 42:-0.16252463 43:-0.2478133 44:-0.17397934 45:-0.31722111 46:-0.15619448 47:-0.066107452 48:-0.14383133 49:-0.22159693 50:-0.64531434 51:-0.26362848 52:-0.52965069 53:0.58525288 54:-0.28615856 55:0.084019728 56:1.7736794 57:2.6715648 #
-0.042791749619199168086502993446629 1:-0.32373646 2:-0.17667121 3:-0.50017285 4:-0.098842546 5:-0.44537586 6:-0.34561899 7:-0.26157999 8:-0.31560028 9:-0.30961666 10:-0.41393355 11:-0.22640149 12:-0.60592264 13:-0.21933696 14:5.5503707 15:-0.15391792 16:-0.30765641 17:-0.37343216 18:-0.36310151 19:2.2451875 20:-0.14419276 21:2.190984 22:-0.062323686 23:-0.26375422 24:8.0338602 25:-0.40743604 26:-0.4047187 27:-0.27057403 28:-0.30796358 29:-0.16733444 30:-0.27352092 31:-0.20108834 32:-0.16073692 33:-0.18338262 34:-0.16487801 35:-0.27398148 36:-0.30811864 37:-0.39074841 38:-0.11907394 39:-0.21418162 40:-0.20511942 41:-0.13776088 42:-0.16252463 43:-0.2478133 44:-0.17397934 45:-0.31722111 46:-0.15619448 47:-0.066107452 48:-0.14383133 49:0.81434089 50:0.4634763 51:-0.26362848 52:-0.52965069 53:-0.34909117 54:-0.28615856 55:-0.07955616 56:-0.27608341 57:-0.57415199 #
0.042791749619199168086502993446629 1:-0.32373646 2:-0.17667121 3:0.39879286 4:-0.098842546 5:0.81341553 6:-0.34561899 7:-0.26157999 8:-0.31560028 9:1.904541 10:-0.41393355 11:-0.22640149 12:-0.60592264 13:-0.21933696 14:-0.16083114 15:-0.15391792 16:0.9678427 17:1.9776331 18:-0.36310151 19:-0.08819098 20:-0.14419276 21:-0.25271675 22:-0.062323686 23:3.9416697 24:-0.25234732 25:-0.40743604 26:-0.4047187 27:-0.27057403 28:-0.30796358 29:-0.16733444 30:-0.27352092 31:-0.20108834 32:-0.16073692 33:-0.18338262 34:-0.16487801 35:-0.27398148 36:-0.30811864 37:-0.39074841 38:-0.11907394 39:-0.21418162 40:-0.20511942 41:-0.13776088 42:-0.16252463 43:-0.2478133 44:-0.17397934 45:0.069101065 46:-0.15619448 47:-0.066107452 48:-0.14383133 49:-0.22159693 50:-0.050021019 51:0.95194238 52:0.8113907 53:1.1867368 54:-0.28615856 55:-0.044546809 56:0.2162177 57:0.12455798 #
0.042791749619199168086502993446629 1:0.024139695 2:0.02783286 3:0.15014276 4:-0.098842546 5:1.4891877 6:0.42720547 7:-0.088455014 8:-0.31560028 9:0.86812675 10:-0.22728199 11:-0.22640149 12:0.75734186 13:-0.21933696 14:0.41028905 15:-0.15391792 16:0.37708521 17:-0.17544772 18:-0.21197082 19:1.0338403 20:-0.14419276 21:-0.045036808 22:-0.062323686 23:0.090386741 24:0.62806225 25:-0.40743604 26:-0.4047187 27:-0.27057403 28:-0.30796358 29:-0.16733444 30:-0.27352092 31:-0.20108834 32:-0.16073692 33:-0.18338262 34:-0.16487801 35:-0.27398148 36:-0.30811864 37:-0.39074841 38:-0.11907394 39:-0.21418162 40:-0.20511942 41:-0.13776088 42:-0.16252463 43:-0.2478133 44:-0.17397934 45:-0.31722111 46:-0.15619448 47:-0.066107452 48:-0.14383133 49:-0.22159693 50:-0.29540911 51:0.93324131 52:0.48267558 53:0.2523928 54:-0.032010138 55:-0.0025753712 56:0.73537159 57:3.7106719 #
0.031687826100249269489772530050686 1:2.4592729 2:-0.17667121 3:0.72395068 4:-0.098842546 5:1.25068 6:-0.34561899 7:1.1234199 8:-0.31560028 9:-0.30961666 10:-0.41393355 11:-0.22640149 12:0.03093083 13:-0.21933696 14:-0.16083114 15:-0.15391792 16:0.55162716 17:1.2104434 18:-0.36310151 19:-0.16634242 20:-0.14419276 21:1.1941203 22:-0.062323686 23:2.5693736 24:-0.25234732 25:-0.40743604 26:-0.4047187 27:-0.27057403 28:-0.30796358 29:-0.16733444 30:-0.27352092 31:-0.20108834 32:-0.16073692 33:-0.18338262 34:-0.16487801 35:-0.27398148 36:-0.30811864 37:-0.39074841 38:-0.11907394 39:-0.21418162 40:-0.20511942 41:-0.13776088 42:-0.16252463 43:-0.2478133 44:-0.17397934 45:-0.31722111 46:-0.15619448 47:-0.066107452 48:-0.14383133 49:-0.22159693 50:-0.64531434 51:-0.26362848 52:1.0819262 53:1.8057398 54:-0.28615856 55:-0.070184968 56:-0.13286854 57:-0.28152987 #
-0.024905728902957426085240655311281 1:-0.32373646 2:-0.17667121 3:-0.50017285 4:-0.098842546 5:7.8361464 6:-0.34561899 7:-0.26157999 8:-0.31560028 9:-0.30961666 10:-0.41393355 11:-0.22640149 12:-0.60592264 13:-0.21933696 14:-0.16083114 15:-0.15391792 16:-0.30765641 17:-0.37343216 18:-0.36310151 19:-0.88086981 20:-0.14419276 21:-0.57808203 22:-0.062323686 23:-0.26375422 24:-0.25234732 25:-0.40743604 26:-0.4047187 27:-0.27057403 28:-0.30796358 29:-0.16733444 30:-0.27352092 31:-0.20108834 32:-0.16073692 33:-0.18338262 34:-0.16487801 35:-0.27398148 36:-0.30811864 37:-0.39074841 38:-0.11907394 39:-0.21418162 40:-0.20511942 41:-0.13776088 42:-0.16252463 43:-0.2478133 44:-0.17397934 45:-0.31722111 46:-0.15619448 47:-0.066107452 48:-0.14383133 49:-0.22159693 50:-0.64531434 51:-0.26362848 52:-0.52965069 53:-0.34909117 54:-0.28615856 55:-0.07754489 56:-0.27608341 57:-0.60699731 #
-0.042791749619199168086502993446629 1:-0.32373646 2:-0.17667121 3:1.2786317 4:-0.098842546 5:-0.034612354 6:-0.34561899 7:-0.26157999 8:-0.31560028 9:1.1507852 10:-0.41393355 11:1.1682727 12:0.31950507 13:-0.21933696 14:-0.16083114 15:-0.15391792 16:-0.30765641 17:1.1609473 18:-0.36310151 19:1.2124722 20:-0.14419276 21:1.7963921 22:-0.062323686 23:-0.26375422 24:-0.25234732 25:-0.40743604 26:-0.4047187 27:-0.27057403 28:-0.30796358 29:-0.16733444 30:-0.27352092 31:-0.20108834 32:-0.16073692 33:-0.18338262 34:-0.16487801 35:-0.27398148 36:-0.30811864 37:0.36123362 38:-0.11907394 39:-0.21418162 40:-0.20511942 41:-0.13776088 42:-0.16252463 43:-0.2478133 44:-0.17397934 45:-0.31722111 46:-0.15619448 47:-0.066107452 48:-0.14383133 49:0.23693292 50:-0.15453817 51:-0.26362848 52:-0.37256557 53:-0.34909117 54:0.85750937 55:-0.061300021 56:-0.20447598 57:-0.20389542 #
0.042791749619199168086502993446629 1:-0.32373646 2:-0.17667121 3:-0.50017285 4:-0.098842546 5:-0.44537586 6:-0.34561899 7:-0.26157999 8:-0.31560028 9:-0.30961666 10:-0.41393355 11:-0.22640149 12:-0.60592264 13:-0.21933696 14:-0.16083114 15:-0.15391792 16:-0.30765641 17:-0.37343216 18:-0.36310151 19:-0.66316223 20:-0.14419276 21:-0.30809808 22:-0.062323686 23:-0.26375422 24:-0.25234732 25:1.3659019 26:-0.0019242398 27:-0.27057403 28:-0.30796358 29:-0.16733444 30:0.55357343 31:-0.20108834 32:-0.16073692 33:-0.18338262 34:-0.16487801 35:-0.27398148 36:-0.30811864 37:-0.39074841 38:-0.11907394 39:-0.21418162 40:-0.20511942 41:-0.13776088 42:-0.16252463 43:-0.2478133 44:0.67862749 45:0.0033441042 46:-0.15619448 47:-0.066107452 48:-0.14383133 49:-0.22159693 50:-0.64531434 51:-0.26362848 52:-0.52965069 53:-0.34909117 54:-0.28615856 55:-0.066493958 56:-0.14181948 57:-0.24868453 #
-0.042791749619199168086502993446629 1:-0.32373646 2:-0.17667121 3:-0.50017285 4:-0.098842546 5:-0.44537586 6:-0.34561899 7:-0.26157999 8:-0.31560028 9:-0.30961666 10:-0.41393355 11:-0.22640149 12:-0.60592264 13:-0.21933696 14:-0.16083114 15:-0.15391792 16:-0.30765641 17:-0.37343216 18:-0.36310151 19:1.4413441 20:-0.14419276 21:-0.57808203 22:-0.062323686 23:-0.26375422 24:-0.25234732 25:-0.40743604 26:-0.4047187 27:-0.27057403 28:-0.30796358 29:-0.16733444 30:-0.27352092 31:-0.20108834 32:-0.16073692 33:-0.18338262 34:-0.16487801 35:-0.27398148 36:-0.30811864 37:-0.39074841 38:-0.11907394 39:-0.21418162 40:-0.20511942 41:-0.13776088 42:-0.16252463 43:-0.2478133 44:-0.17397934 45:-0.31722111 46:-0.15619448 47:-0.066107452 48:-0.14383133 49:-0.22159693 50:-0.64531434 51:-0.26362848 52:1.6229972 53:-0.34909117 54:-0.28615856 55:-0.085833088 56:-0.27608341 57:-0.59803951 #
0.042791749619199168086502993446629 1:-0.32373646 2:-0.17667121 3:1.4125202 4:-0.098842546 5:-0.44537586 6:0.79088759 7:-0.26157999 8:0.82674593 9:-0.30961666 10:-0.41393355 11:-0.22640149 12:0.88670272 13:0.53531528 14:-0.16083114 15:-0.15391792 16:0.028001251 17:0.86397064 18:-0.36310151 19:0.51469147 20:-0.14419276 21:0.46031776 22:-0.062323686 23:-0.26375422 24:1.0423727 25:-0.40743604 26:-0.4047187 27:-0.27057403 28:-0.30796358 29:-0.16733444 30:-0.27352092 31:-0.20108834 32:-0.16073692 33:-0.18338262 34:-0.16487801 35:-0.27398148 36:-0.30811864 37:-0.39074841 38:-0.11907394 39:-0.21418162 40:-0.20511942 41:-0.13776088 42:-0.16252463 43:-0.2478133 44:-0.17397934 45:-0.31722111 46:-0.15619448 47:-0.066107452 48:-0.14383133 49:-0.22159693 50:-0.64531434 51:-0.26362848 52:0.060872968 53:0.83635783 54:-0.28615856 55:-0.058404677 56:-0.025457395 57:-0.25167048 #
0.042791749619199168086502993446629 1:-0.32373646 2:-0.17667121 3:-0.50017285 4:-0.098842546 5:7.8361464 6:-0.34561899 7:6.490294 8:-0.31560028 9:-0.30961666 10:-0.41393355 11:-0.22640149 12:2.4987381 13:-0.21933696 14:-0.16083114 15:-0.15391792 16:-0.30765641 17:-0.37343216 18:-0.36310151 19:2.6080334 20:-0.14419276 21:-0.57808203 22:-0.062323686 23:-0.26375422 24:-0.25234732 25:-0.40743604 26:-0.4047187 27:-0.27057403 28:-0.30796358 29:-0.16733444 30:-0.27352092 31:-0.20108834 32:-0.16073692 33:-0.18338262 34:-0.16487801 35:-0.27398148 36:-0.30811864 37:-0.39074841 38:-0.11907394 39:-0.21418162 40:-0.20511942 41:-0.13776088 42:-0.16252463 43:-0.2478133 44:-0.17397934 45:-0.31722111 46:-0.15619448 47:-0.066107452 48:-0.14383133 49:-0.22159693 50:-0.64531434 51:-0.26362848 52:-0.52965069 53:-0.34909117 54:-0.28615856 55:0.086627744 56:0.20726676 57:-0.43978468 #
0.042791749619199168086502993446629 1:-0.32373646 2:-0.17667121 3:-0.50017285 4:-0.098842546 5:-0.44537586 6:-0.34561899 7:-0.26157999 8:-0.31560028 9:-0.30961666 10:-0.41393355 11:-0.22640149 12:-0.60592264 13:-0.21933696 14:-0.16083114 15:-0.15391792 16:-0.30765641 17:-0.37343216 18:-0.36310151 19:-0.66316223 20:-0.14419276 21:-0.30809808 22:-0.062323686 23:-0.26375422 24:-0.25234732 25:1.3659019 26:-0.0019242398 27:-0.27057403 28:-0.30796358 29:-0.16733444 30:0.55357343 31:-0.20108834 32:-0.16073692 33:-0.18338262 34:-0.16487801 35:-0.27398148 36:-0.30811864 37:-0.39074841 38:-0.11907394 39:-0.21418162 40:-0.20511942 41:-0.13776088 42:-0.16252463 43:-0.2478133 44:0.67862749 45:0.0033441042 46:-0.15619448 47:-0.066107452 48:-0.14383133 49:-0.22159693 50:-0.64531434 51:-0.26362848 52:-0.52965069 53:-0.34909117 54:-0.28615856 55:-0.066493958 56:-0.14181948 57:-0.24868453 #
-0.042791749619199168086502993446629 1:-0.062829345 2:-0.17667121 3:-0.13676119 4:-0.098842546 5:-0.10086454 6:-0.072857417 7:-0.26157999 8:0.5525828 9:-0.30961666 10:-0.27394488 11:-0.22640149 12:0.50857097 13:-0.038220409 14:1.1955793 15:-0.15391792 16:-0.30765641 17:0.91346675 18:-0.36310151 19:-0.88086981 20:2.7596867 21:-0.53654605 22:-0.062323686 23:1.462683 24:-0.25234732 25:1.1925309 26:-0.4047187 27:-0.27057403 28:-0.30796358 29:-0.16733444 30:-0.27352092 31:-0.20108834 32:-0.16073692 33:-0.090900108 34:-0.16487801 35:-0.27398148 36:0.082759462 37:-0.07540112 38:-0.11907394 39:-0.21418162 40:-0.20511942 41:-0.13776088 42:-0.16252463 43:-0.2478133 44:-0.042809062 45:-0.31722111 46:-0.15619448 47:-0.066107452 48:-0.14383133 49:0.3897762 50:-0.11364016 51:-0.26362848 52:-0.52965069 53:0.018806782 54:-0.28615856 55:-0.074870564 56:-0.10601576 57:1.6055843 #
0.042791749619199168086502993446629 1:-0.32373646 2:-0.17667121 3:-0.50017285 4:-0.098842546 5:-0.44537586 6:-0.34561899 7:-0.26157999 8:2.7458875 9:-0.30961666 10:1.1492733 11:-0.22640149 12:-0.60592264 13:-0.21933696 14:-0.16083114 15:-0.15391792 16:-0.30765641 17:-0.37343216 18:-0.36310151 19:-0.88086981 20:-0.14419276 21:-0.57808203 22:-0.062323686 23:-0.26375422 24:-0.25234732 25:-0.40743604 26:-0.4047187 27:-0.27057403 28:-0.30796358 29:-0.16733444 30:-0.27352092 31:-0.20108834 32:-0.16073692 33:-0.18338262 34:-0.16487801 35:-0.27398148 36:-0.30811864 37:2.8597546 38:-0.11907394 39:-0.21418162 40:-0.20511942 41:-0.13776088 42:-0.16252463 43:-0.2478133 44:-0.17397934 45:-0.31722111 46:-0.15619448 47:-0.066107452 48:-0.14383133 49:1.221923 50:1.676784 51:1.3259642 52:0.95683992 53:-0.34909117 54:-0.28615856 55:-0.019704314 56:-0.088113904 57:0.011092257 #
0.042791749619199168086502993446629 1:-0.32373646 2:-0.17667121 3:-0.50017285 4:-0.098842546 5:-0.44537586 6:-0.34561899 7:-0.26157999 8:-0.31560028 9:-0.30961666 10:-0.41393355 11:-0.22640149 12:1.1951786 13:-0.21933696 14:-0.16083114 15:-0.15391792 16:-0.30765641 17:-0.37343216 18:-0.36310151 19:-0.88086981 20:-0.14419276 21:0.67492038 22:-0.062323686 23:-0.26375422 24:-0.25234732 25:-0.40743604 26:-0.4047187 27:-0.27057403 28:-0.30796358 29:-0.16733444 30:-0.27352092 31:-0.20108834 32:-0.16073692 33:-0.18338262 34:-0.16487801 35:-0.27398148 36:-0.30811864 37:-0.39074841 38:-0.11907394 39:-0.21418162 40:-0.20511942 41:-0.13776088 42:-0.16252463 43:-0.2478133 44:-0.17397934 45:-0.31722111 46:-0.15619448 47:-0.066107452 48:-0.14383133 49:-0.22159693 50:-0.64531434 51:-0.26362848 52:0.36922523 53:-0.34909117 54:-0.28615856 55:-0.092286833 56:-0.23132877 57:-0.4696441 #
-0.042791749619199168086502993446629 1:-0.32373646 2:-0.17667121 3:0.62831604 4:-0.098842546 5:-0.061113227 6:2.3365366 7:1.0152167 8:1.0095212 9:-0.30961666 10:0.26267835 11:1.0782938 12:-0.60592264 13:-0.21933696 14:-0.16083114 15:-0.15391792 16:-0.30765641 17:-0.37343216 18:1.3182273 19:1.117574 20:-0.14419276 21:0.4533951 22:-0.062323686 23:-0.26375422 24:-0.25234732 25:-0.26378575 26:-0.10520487 27:-0.27057403 28:-0.30796358 29:-0.16733444 30:-0.27352092 31:-0.20108834 32:-0.16073692 33:-0.18338262 34:-0.16487801 35:-0.27398148 36:-0.30811864 37:-0.39074841 38:-0.11907394 39:-0.21418162 40:-0.20511942 41:-0.13776088 42:-0.16252463 43:-0.2478133 44:-0.17397934 45:-0.078852102 46:-0.15619448 47:-0.066107452 48:-0.14383133 49:0.53412819 50:-0.64531434 51:-0.26362848 52:-0.40165541 53:0.43342194 54:-0.28615856 55:-0.086385638 56:-0.19552505 57:-0.27854392 #
-0.014123428644337632231753332234803 1:-0.32373646 2:-0.17667121 3:-0.50017285 4:-0.098842546 5:0.70741206 6:-0.34561899 7:1.6211542 8:-0.31560028 9:-0.30961666 10:-0.41393355 11:-0.22640149 12:-0.60592264 13:-0.21933696 14:-0.16083114 15:-0.15391792 16:3.2234621 17:-0.37343216 18:1.2804446 19:0.58726066 20:-0.14419276 21:-0.57808203 22:-0.062323686 23:-0.26375422 24:-0.25234732 25:-0.40743604 26:-0.4047187 27:-0.27057403 28:-0.30796358 29:-0.16733444 30:-0.27352092 31:-0.20108834 32:-0.16073692 33:-0.18338262 34:-0.16487801 35:-0.27398148 36:-0.30811864 37:-0.39074841 38:-0.11907394 39:-0.21418162 40:-0.20511942 41:-0.13776088 42:-0.16252463 43:-0.2478133 44:-0.17397934 45:-0.31722111 46:-0.15619448 47:-0.066107452 48:-0.14383133 49:-0.22159693 50:-0.64531434 51:-0.26362848 52:1.7917181 53:0.57941324 54:-0.28615856 55:0.28611916 56:0.88753736 57:-0.030710904 #
-0.042791749619199168086502993446629 1:1.4591289 2:-0.17667121 3:0.28403127 4:-0.098842546 5:1.2109287 6:-0.34561899 7:0.62568551 8:-0.31560028 9:-0.30961666 10:0.052695356 11:-0.22640149 12:0.42896426 13:0.38438484 14:-0.16083114 15:-0.15391792 16:0.24282214 17:0.64123815 18:-0.36310151 19:1.3296993 20:-0.14419276 21:1.0072083 22:-0.062323686 23:0.62159818 24:5.133688 25:-0.40743604 26:-0.4047187 27:-0.27057403 28:-0.30796358 29:-0.16733444 30:-0.27352092 31:-0.20108834 32:-0.16073692 33:-0.18338262 34:-0.16487801 35:-0.27398148 36:-0.30811864 37:-0.39074841 38:-0.11907394 39:-0.21418162 40:-0.20511942 41:-0.13776088 42:0.06047773 43:-0.2478133 44:-0.17397934 45:0.3650074 46:-0.15619448 47:-0.066107452 48:-0.14383133 49:-0.22159693 50:-0.33176291 51:-0.26362848 52:1.989529 53:0.2523928 54:-0.28615856 55:-0.010090005 56:1.5857098 57:0.81132418 #
0.042791749619199168086502993446629 1:-0.32373646 2:1.4112427 3:0.57093525 4:-0.098842546 5:-0.44537586 6:3.9276457 7:-0.26157999 8:1.3750721 9:1.4334437 10:1.3359249 11:-0.22640149 12:1.4539003 13:-0.21933696 14:-0.16083114 15:-0.15391792 16:-0.30765641 17:0.54224592 18:-0.36310151 19:0.48678026 20:-0.14419276 21:0.072648503 22:-0.062323686 23:-0.26375422 24:0.67985106 25:-0.40743604 26:-0.4047187 27:-0.21375258 28:-0.30796358 29:-0.16733444 30:-0.27352092 31:-0.20108834 32:-0.16073692 33:-0.18338262 34:-0.16487801 35:-0.27398148 36:-0.30811864 37:-0.39074841 38:-0.11907394 39:-0.21418162 40:-0.20511942 41:-0.13776088 42:-0.16252463 43:-0.2478133 44:-0.17397934 45:-0.31722111 46:-0.15619448 47:-0.066107452 48:-0.14383133 49:-0.22159693 50:-0.28177646 51:-0.26362848 52:0.32849947 53:0.27575138 54:-0.28615856 55:-0.065565683 56:-0.025457395 57:0.076782934 #
0.042791749619199168086502993446629 1:-0.32373646 2:-0.17667121 3:-0.50017285 4:-0.098842546 5:-0.44537586 6:2.3819969 7:1.0368574 8:-0.31560028 9:-0.30961666 10:-0.41393355 11:2.4729679 12:-0.60592264 13:-0.21933696 14:-0.16083114 15:-0.15391792 16:-0.30765641 17:-0.37343216 18:1.92275 19:0.13509883 20:-0.14419276 21:-0.57808203 22:-0.062323686 23:-0.26375422 24:-0.25234732 25:-0.40743604 26:-0.4047187 27:-0.27057403 28:-0.30796358 29:-0.16733444 30:-0.27352092 31:-0.20108834 32:-0.16073692 33:-0.18338262 34:-0.16487801 35:-0.27398148 36:-0.30811864 37:-0.39074841 38:-0.11907394 39:-0.21418162 40:-0.20511942 41:-0.13776088 42:-0.16252463 43:-0.2478133 44:-0.17397934 45:-0.31722111 46:-0.15619448 47:-0.066107452 48:-0.14383133 49:-0.22159693 50:-0.21361308 51:-0.26362848 52:-0.52965069 53:-0.34909117 54:-0.28615856 55:-0.086761363 56:-0.23132877 57:-0.52339101 #
0.042791749619199168086502993446629 1:-0.32373646 2:-0.17667121 3:-0.50017285 4:-0.098842546 5:-0.44537586 6:-0.34561899 7:-0.26157999 8:-0.31560028 9:-0.30961666 10:-0.41393355 11:-0.22640149 12:-0.60592264 13:-0.21933696 14:-0.16083114 15:-0.15391792 16:-0.30765641 17:-0.37343216 18:-0.36310151 19:-0.66316223 20:-0.14419276 21:-0.30809808 22:-0.062323686 23:-0.26375422 24:-0.25234732 25:1.3659019 26:-0.0019242398 27:-0.27057403 28:-0.30796358 29:-0.16733444 30:0.55357343 31:-0.20108834 32:-0.16073692 33:-0.18338262 34:-0.16487801 35:-0.27398148 36:-0.30811864 37:-0.39074841 38:-0.11907394 39:-0.21418162 40:-0.20511942 41:-0.13776088 42:-0.16252463 43:-0.2478133 44:0.67862749 45:0.0033441042 46:-0.15619448 47:-0.066107452 48:-0.14383133 49:-0.22159693 50:-0.64531434 51:-0.26362848 52:-0.52965069 53:-0.34909117 54:-0.28615856 55:-0.066493958 56:-0.14181948 57:-0.24868453 #
-0.042791749619199168086502993446629 1:-0.32373646 2:-0.17667121 3:-0.50017285 4:-0.098842546 5:-0.44537586 6:-0.34561899 7:-0.26157999 8:-0.31560028 9:-0.30961666 10:-0.41393355 11:-0.22640149 12:-0.60592264 13:-0.21933696 14:-0.16083114 15:-0.15391792 16:-0.30765641 17:-0.37343216 18:-0.36310151 19:1.4413441 20:-0.14419276 21:-0.57808203 22:-0.062323686 23:-0.26375422 24:-0.25234732 25:-0.40743604 26:-0.4047187 27:-0.27057403 28:-0.30796358 29:-0.16733444 30:-0.27352092 31:-0.20108834 32:-0.16073692 33:-0.18338262 34:-0.16487801 35:-0.27398148 36:-0.30811864 37:-0.39074841 38:-0.11907394 39:-0.21418162 40:-0.20511942 41:-0.13776088 42:-0.16252463 43:-0.2478133 44:-0.17397934 45:-0.31722111 46:-0.15619448 47:-0.066107452 48:-0.14383133 49:-0.22159693 50:-0.64531434 51:-0.26362848 52:1.6229972 53:-0.34909117 54:-0.28615856 55:-0.085833088 56:-0.27608341 57:-0.59803951 #
0.042791749619199168086502993446629 1:-0.32373646 2:0.37669274 3:-0.50017285 4:-0.098842546 5:1.0784242 6:-0.34561899 7:0.23615432 8:0.73535818 9:-0.30961666 10:0.6593129 11:-0.22640149 12:0.080685005 13:0.47494313 14:-0.16083114 15:-0.15391792 16:-0.30765641 17:1.3341837 18:0.94040054 19:0.65982985 20:-0.14419276 21:0.69568837 22:-0.062323686 23:-0.26375422 24:0.93879509 25:-0.40743604 26:-0.4047187 27:-0.27057403 28:-0.30796358 29:-0.16733444 30:-0.27352092 31:-0.20108834 32:-0.16073692 33:-0.18338262 34:-0.16487801 35:-0.27398148 36:2.0577226 37:-0.39074841 38:-0.11907394 39:-0.21418162 40:-0.20511942 41:-0.13776088 42:-0.16252463 43:-0.2478133 44:-0.17397934 45:-0.31722111 46:-0.15619448 47:-0.066107452 48:-0.14383133 49:-0.22159693 50:-0.4817223 51:0.40961075 52:1.9168044 53:-0.13886377 54:-0.28615856 55:-0.080594949 56:0.13565934 57:0.21413618 #
-0.042791749619199168086502993446629 1:-0.32373646 2:-0.17667121 3:-0.50017285 4:-0.098842546 5:0.70741206 6:-0.34561899 7:1.6211542 8:-0.31560028 9:-0.30961666 10:-0.41393355 11:-0.22640149 12:-0.60592264 13:-0.21933696 14:-0.16083114 15:-0.15391792 16:3.2234621 17:-0.37343216 18:1.2804446 19:0.58726066 20:-0.14419276 21:-0.57808203 22:-0.062323686 23:-0.26375422 24:-0.25234732 25:-0.40743604 26:-0.4047187 27:-0.27057403 28:-0.30796358 29:-0.16733444 30:-0.27352092 31:-0.20108834 32:-0.16073692 33:-0.18338262 34:-0.16487801 35:-0.27398148 36:-0.30811864 37:-0.39074841 38:-0.11907394 39:-0.21418162 40:-0.20511942 41:-0.13776088 42:-0.16252463 43:-0.2478133 44:-0.17397934 45:-0.31722111 46:-0.15619448 47:-0.066107452 48:-0.14383133 49:-0.22159693 50:-0.64531434 51:-0.26362848 52:1.7917181 53:0.57941324 54:-0.28615856 55:0.28611916 56:0.88753736 57:-0.030710904 #
0.042791749619199168086502993446629 1:-0.32373646 2:-0.17667121 3:-0.50017285 4:-0.098842546 5:-0.44537586 6:-0.34561899 7:-0.26157999 8:-0.31560028 9:-0.30961666 10:-0.41393355 11:-0.22640149 12:-0.60592264 13:-0.21933696 14:-0.16083114 15:-0.15391792 16:-0.30765641 17:-0.37343216 18:-0.36310151 19:-0.66316223 20:-0.14419276 21:-0.30809808 22:-0.062323686 23:-0.26375422 24:-0.25234732 25:1.3659019 26:-0.0019242398 27:-0.27057403 28:-0.30796358 29:-0.16733444 30:0.55357343 31:-0.20108834 32:-0.16073692 33:-0.18338262 34:-0.16487801 35:-0.27398148 36:-0.30811864 37:-0.39074841 38:-0.11907394 39:-0.21418162 40:-0.20511942 41:-0.13776088 42:-0.16252463 43:-0.2478133 44:0.67862749 45:0.0033441042 46:-0.15619448 47:-0.066107452 48:-0.14383133 49:-0.22159693 50:-0.64531434 51:-0.26362848 52:-0.52965069 53:-0.34909117 54:-0.28615856 55:-0.066493958 56:-0.14181948 57:-0.24868453 #
0.042791749619199168086502993446629 1:0.80686104 2:0.13609971 3:0.4944275 4:-0.098842546 5:0.071391135 6:-0.34561899 7:0.58240426 8:0.27841973 9:-0.30961666 10:0.19268402 11:-0.22640149 12:0.17024253 13:0.56550139 14:-0.16083114 15:-0.15391792 16:1.8002737 17:-0.37343216 18:0.12807319 19:0.57609618 20:-0.14419276 21:0.50877643 22:-0.062323686 23:0.31172484 24:1.7674159 25:-0.40743604 26:-0.4047187 27:-0.27057403 28:-0.30796358 29:-0.16733444 30:-0.27352092 31:-0.20108834 32:-0.16073692 33:-0.18338262 34:-0.16487801 35:-0.27398148 36:-0.30811864 37:-0.07540112 38:-0.11907394 39:-0.21418162 40:-0.20511942 41:-0.13776088 42:-0.16252463 43:-0.2478133 44:-0.17397934 45:-0.31722111 46:-0.15619448 47:-0.066107452 48:-0.14383133 49:-0.22159693 50:-0.059109468 51:-0.26362848 52:1.7364475 53:-0.22645853 54:0.15860118 55:-0.062316705 56:0.10880654 57:0.78445071 #
-0.042791749619199168086502993446629 1:-0.32373646 2:-0.17667121 3:-0.50017285 4:-0.098842546 5:-0.44537586 6:-0.34561899 7:-0.26157999 8:-0.31560028 9:-0.30961666 10:-0.41393355 11:-0.22640149 12:-0.60592264 13:-0.21933696 14:-0.16083114 15:-0.15391792 16:-0.30765641 17:-0.37343216 18:-0.36310151 19:-0.88086981 20:-0.14419276 21:-0.57808203 22:-0.062323686 23:-0.26375422 24:-0.25234732 25:-0.40743604 26:-0.4047187 27:-0.27057403 28:-0.30796358 29:-0.16733444 30:-0.27352092 31:-0.20108834 32:-0.16073692 33:-0.18338262 34:-0.16487801 35:-0.27398148 36:-0.30811864 37:-0.39074841 38:-0.11907394 39:-0.21418162 40:-0.20511942 41:-0.13776088 42:-0.16252463 43:-0.2478133 44:-0.17397934 45:-0.31722111 46:-0.15619448 47:-0.066107452 48:-0.14383133 49:-0.22159693 50:0.91789871 51:-0.26362848 52:-0.52965069 53:-0.34909117 54:-0.28615856 55:-0.080197111 56:-0.2134269 57:-0.49651754 #
-0.0088821225969335088068490335899696 1:-0.32373646 2:-0.17667121 3:-0.50017285 4:-0.098842546 5:-0.44537586 6:-0.34561899 7:-0.26157999 8:-0.31560028 9:-0.30961666 10:0.91595882 11:-0.22640149 12:-0.60592264 13:-0.21933696 14:-0.16083114 15:-0.15391792 16:0.45764303 17:-0.37343216 18:-0.36310151 19:0.72123456 20:-0.14419276 21:2.2048295 22:-0.062323686 23:-0.26375422 24:-0.25234732 25:-0.40743604 26:-0.4047187 27:-0.27057403 28:-0.30796358 29:-0.16733444 30:-0.27352092 31:-0.20108834 32:-0.16073692 33:-0.18338262 34:-0.16487801 35:-0.27398148 36:-0.30811864 37:-0.39074841 38:-0.11907394 39:-0.21418162 40:-0.20511942 41:-0.13776088 42:-0.16252463 43:-0.2478133 44:-0.17397934 45:0.61981565 46:-0.15619448 47:-0.066107452 48:-0.14383133 49:-0.22159693 50:3.1718338 51:-0.26362848 52:-0.52965069 53:-0.34909117 54:1.3234482 55:-0.042557642 56:-0.052310184 57:-0.25167048 #
0.042791749619199168086502993446629 1:0.76337653 2:0.12407006 3:-0.50017285 4:-0.098842546 5:0.54840684 6:-0.34561899 7:-0.26157999 8:-0.31560028 9:0.86812675 10:1.3359249 11:-0.22640149 12:0.89665353 13:-0.21933696 14:8.8343115 15:-0.15391792 16:-0.30765641 17:0.86397064 18:-0.36310151 19:0.95568883 20:-0.14419276 21:0.12110716 22:-0.062323686 23:-0.26375422 24:-0.25234732 25:-0.40743604 26:-0.4047187 27:-0.27057403 28:-0.30796358 29:-0.16733444 30:-0.27352092 31:-0.20108834 32:-0.16073692 33:0.20196116 34:-0.16487801 35:-0.27398148 36:-0.30811864 37:-0.39074841 38:-0.11907394 39:-0.21418162 40:-0.20511942 41:-0.13776088 42:-0.16252463 43:-0.2478133 44:-0.17397934 45:-0.31722111 46:-0.15619448 47:-0.066107452 48:-0.14383133 49:-0.22159693 50:-0.272688 51:-0.26362848 52:-0.41038236 53:0.37502545 54:2.3400419 55:-0.05144259 56:-0.043359254 57:-0.0098093236 #
-0.017512725970887804000097887069387 1:-0.32373646 2:-0.17667121 3:-0.50017285 4:-0.098842546 5:-0.44537586 6:-0.34561899 7:-0.26157999 8:-0.31560028 9:-0.30961666 10:-0.41393355 11:-0.22640149 12:-0.60592264 13:-0.21933696 14:-0.16083114 15:-0.15391792 16:-0.30765641 17:1.4084278 18:-0.36310151 19:-0.88086981 20:-0.14419276 21:-0.57808203 22:-0.062323686 23:-0.26375422 24:-0.25234732 25:-0.050787069 26:-0.4047187 27:-0.27057403 28:-0.30796358 29:-0.16733444 30:-0.27352092 31:-0.20108834 32:-0.16073692 33:-0.18338262 34:-0.16487801 35:-0.27398148 36:-0.30811864 37:-0.39074841 38:11.624594 39:-0.21418162 40:-0.20511942 41:-0.13776088 42:-0.16252463 43:-0.2478133 44:-0.17397934 45:-0.31722111 46:-0.15619448 47:-0.066107452 48:-0.14383133 49:-0.22159693 50:-0.64531434 51:-0.26362848 52:-0.52965069 53:-0.34909117 54:8.0795603 55:-0.070184968 56:-0.25818154 57:-0.28152987 #
0.042791749619199168086502993446629 1:-0.32373646 2:-0.17667121 3:-0.50017285 4:-0.098842546 5:-0.44537586 6:-0.34561899 7:-0.26157999 8:-0.31560028 9:-0.30961666 10:-0.41393355 11:-0.22640149 12:-0.60592264 13:-0.21933696 14:-0.16083114 15:-0.15391792 16:-0.30765641 17:-0.37343216 18:-0.36310151 19:-0.66316223 20:-0.14419276 21:-0.30809808 22:-0.062323686 23:-0.26375422 24:-0.25234732 25:1.3659019 26:-0.0019242398 27:-0.27057403 28:-0.30796358 29:-0.16733444 30:0.55357343 31:-0.20108834 32:-0.16073692 33:-0.18338262 34:-0.16487801 35:-0.27398148 36:-0.30811864 37:-0.39074841 38:-0.11907394 39:-0.21418162 40:-0.20511942 41:-0.13776088 42:-0.16252463 43:-0.2478133 44:0.67862749 45:0.0033441042 46:-0.15619448 47:-0.066107452 48:-0.14383133 49:-0.22159693 50:-0.64531434 51:-0.26362848 52:-0.52965069 53:-0.34909117 54:-0.28615856 55:-0.066493958 56:-0.14181948 57:-0.24868453 #
-0.042791749619199168086502993446629 1:-0.32373646 2:-0.17667121 3:-0.50017285 4:-0.098842546 5:0.70741206 6:-0.34561899 7:1.6211542 8:-0.31560028 9:-0.30961666 10:-0.41393355 11:-0.22640149 12:-0.60592264 13:-0.21933696 14:-0.16083114 15:-0.15391792 16:3.2234621 17:-0.37343216 18:1.2804446 19:0.58726066 20:-0.14419276 21:-0.57808203 22:-0.062323686 23:-0.26375422 24:-0.25234732 25:-0.40743604 26:-0.4047187 27:-0.27057403 28:-0.30796358 29:-0.16733444 30:-0.27352092 31:-0.20108834 32:-0.16073692 33:-0.18338262 34:-0.16487801 35:-0.27398148 36:-0.30811864 37:-0.39074841 38:-0.11907394 39:-0.21418162 40:-0.20511942 41:-0.13776088 42:-0.16252463 43:-0.2478133 44:-0.17397934 45:-0.31722111 46:-0.15619448 47:-0.066107452 48:-0.14383133 49:-0.22159693 50:-0.64531434 51:-0.26362848 52:1.7917181 53:0.57941324 54:-0.28615856 55:0.28611916 56:0.88753736 57:-0.030710904 #
0.042791749619199168086502993446629 1:0.024139695 2:0.01580321 3:0.11188891 4:-0.098842546 5:1.3831843 6:0.38174522 7:-0.088455014 8:-0.31560028 9:0.82101703 10:-0.22728199 11:-0.22640149 12:0.68768597 13:-0.21933696 14:0.41028905 15:-0.15391792 16:0.3368063 17:-0.17544772 18:-0.21197082 19:1.072916 20:-0.14419276 21:-0.072727464 22:-0.062323686 23:0.090386741 24:0.57627344 25:-0.40743604 26:-0.4047187 27:-0.27057403 28:-0.30796358 29:-0.16733444 30:-0.27352092 31:-0.20108834 32:-0.16073692 33:-0.18338262 34:-0.16487801 35:-0.11387676 36:-0.30811864 37:-0.39074841 38:-0.11907394 39:-0.21418162 40:-0.20511942 41:-0.13776088 42:-0.16252463 43:-0.2478133 44:-0.17397934 45:-0.31722111 46:-0.15619448 47:-0.066107452 48:-0.14383133 49:-0.22159693 50:-0.25905532 51:0.87713802 52:0.60485291 53:0.21735489 54:-0.032010138 55:0.0018892051 56:0.73537159 57:4.0241957 #
